{"learner":{"attributes":{"scikit_learn":"{\"_estimator_type\": \"classifier\"}"},"feature_names":["HS","AS","HST","AST","HF","AF","HC","AC","HY","AY","HR","AR","B365H","B365D","B365A","BWH","BWD","BWA","IWH","IWD","IWA","PSH","PSD","PSA","WHH","WHD","WHA","VCH","VCD","VCA","MaxH","MaxD","MaxA","AvgH","AvgD","AvgA","B365_gt_25","B365_lt_25","P_gt_25","P_lt_25","Max_gt_25","Max_lt_25","Avg_gt_25","Avg_lt_25","AHh","B365AHH","B365AHA","PAHH","PAHA","MaxAHH","MaxAHA","AvgAHH","AvgAHA","B365CH","B365CD","B365CA","BWCH","BWCD","BWCA","IWCH","IWCD","IWCA","PSCH","PSCD","PSCA","WHCH","WHCD","WHCA","VCCH","VCCD","VCCA","MaxCH","MaxCD","MaxCA","AvgCH","AvgCD","AvgCA","B365C_gt_25","B365C_lt_25","PC_gt_25","PC_lt_25","MaxC_gt_25","MaxC_lt_25","AvgC_gt_25","AvgC_lt_25","AHCh","B365CAHH","B365CAHA","PCAHH","PCAHA","MaxCAHH","MaxCAHA","AvgCAHH","AvgCAHA","BFH","BFD","BFA","1XBH","1XBD","1XBA","BFEH","BFED","BFEA","BFE_gt_25","BFE_lt_25","BFEAHH","BFEAHA","BFCH","BFCD","BFCA","1XBCH","1XBCD","1XBCA","BFECH","BFECD","BFECA","BFEC_gt_25","BFEC_lt_25","BFECAHH","BFECAHA","HomeTeam_encoded","AwayTeam_encoded","Referee_encoded","HomeTeam_AvgGS_L3","HomeTeam_AvgGC_L3","HomeTeam_Form_Points_L3","HomeTeam_AvgGS_L5","HomeTeam_AvgGC_L5","HomeTeam_Form_Points_L5","HomeTeam_AvgGS_L10","HomeTeam_AvgGC_L10","HomeTeam_Form_Points_L10","AwayTeam_AvgGS_L3","AwayTeam_AvgGC_L3","AwayTeam_Form_Points_L3","AwayTeam_AvgGS_L5","AwayTeam_AvgGC_L5","AwayTeam_Form_Points_L5","AwayTeam_AvgGS_L10","AwayTeam_AvgGC_L10","AwayTeam_Form_Points_L10"],"feature_types":["int","int","int","int","int","int","int","int","int","int","int","int","float","float","float","float","float","float","float","float","float","float","float","float","float","float","float","float","float","float","float","float","float","float","float","float","float","float","float","float","float","float","float","float","float","float","float","float","float","float","float","float","float","float","float","float","float","float","float","float","float","float","float","float","float","float","float","float","float","float","float","float","float","float","float","float","float","float","float","float","float","float","float","float","float","float","float","float","float","float","float","float","float","float","float","float","float","float","float","float","float","float","float","float","float","float","float","float","float","float","float","float","float","float","float","float","float","float","float","float","int","int","int","float","float","float","float","float","float","float","float","float","float","float","float","float","float","float","float","float","float"],"gradient_booster":{"model":{"gbtree_model_param":{"num_parallel_tree":"1","num_trees":"300"},"iteration_indptr":[0,3,6,9,12,15,18,21,24,27,30,33,36,39,42,45,48,51,54,57,60,63,66,69,72,75,78,81,84,87,90,93,96,99,102,105,108,111,114,117,120,123,126,129,132,135,138,141,144,147,150,153,156,159,162,165,168,171,174,177,180,183,186,189,192,195,198,201,204,207,210,213,216,219,222,225,228,231,234,237,240,243,246,249,252,255,258,261,264,267,270,273,276,279,282,285,288,291,294,297,300],"tree_info":[0,1,2,0,1,2,0,1,2,0,1,2,0,1,2,0,1,2,0,1,2,0,1,2,0,1,2,0,1,2,0,1,2,0,1,2,0,1,2,0,1,2,0,1,2,0,1,2,0,1,2,0,1,2,0,1,2,0,1,2,0,1,2,0,1,2,0,1,2,0,1,2,0,1,2,0,1,2,0,1,2,0,1,2,0,1,2,0,1,2,0,1,2,0,1,2,0,1,2,0,1,2,0,1,2,0,1,2,0,1,2,0,1,2,0,1,2,0,1,2,0,1,2,0,1,2,0,1,2,0,1,2,0,1,2,0,1,2,0,1,2,0,1,2,0,1,2,0,1,2,0,1,2,0,1,2,0,1,2,0,1,2,0,1,2,0,1,2,0,1,2,0,1,2,0,1,2,0,1,2,0,1,2,0,1,2,0,1,2,0,1,2,0,1,2,0,1,2,0,1,2,0,1,2,0,1,2,0,1,2,0,1,2,0,1,2,0,1,2,0,1,2,0,1,2,0,1,2,0,1,2,0,1,2,0,1,2,0,1,2,0,1,2,0,1,2,0,1,2,0,1,2,0,1,2,0,1,2,0,1,2,0,1,2,0,1,2,0,1,2,0,1,2,0,1,2,0,1,2,0,1,2,0,1,2,0,1,2,0,1,2,0,1,2,0,1,2,0,1,2],"trees":[{"base_weights":[-6.7862116E-2,3.165664E-1,-4.5706376E-1,-3.4682125E-2,6.2589926E-1,-5.6375843E-1,-1.4587742E-1,3.7864074E-1,-2.6017705E-1,7.9560155E-1,-2.8708177E-2,-9.6774235E-2,-5.9427214E-1,3.1034482E-1,-2.185431E-1,9.026548E-1,7.317069E-2,-3.570058E-1,7.35849E-1,6.0680526E-1,1.1620554E0,3.861386E-1,-3.8461542E-1,5.9999996E-1,-1.894737E-1,2.7272725E-1,-6.1313874E-1,2.3715373E-2,-5.023924E-1,1.0645161E0,3.1034475E-2,-3.5779822E-1,5.142857E-1,-6.4000005E-1,-1.3770497E-1,3.4054056E-1,-3.600001E-2,2.620087E-1,8.4466016E-1,1.219917E0,-7.663455E-9,-1.5517244E-1,6.666666E-1,2.7272725E-1,-5.806452E-1,-1.2857145E-1,3.2727274E-1,-1.2857145E-1,2.5714284E-1,-6.257214E-1,3.1034475E-2,3.1034482E-1,-1.0300434E-1,-5.786803E-1,1.2857142E-1,7.2E-2,3.6233765E-1,-1.9870132E-1,8.780487E-2,-5.901641E-2,3.7358493E-1,7.2E-2,-2.1531104E-1,-1.4117649E-1,5.5900615E-2,-4.972389E-3,3.3157894E-1,-8.181819E-2,2.8421053E-1,3.8515285E-1,-7.663455E-9,3.0461538E-1,-1.4400001E-1,1.2857142E-1,-7.663455E-9,-2.0000003E-1,-7.663455E-9,-1.9150549E-1,-9.753488E-9,1.17391296E-1,-8.843933E-2,-4.3902453E-2,-1.9636366E-1],"categories":[],"categories_nodes":[],"categories_segments":[],"categories_sizes":[],"default_left":[0,0,0,0,0,0,0,0,1,0,0,0,0,0,0,0,0,0,0,0,0,0,0,0,0,1,0,0,0,0,0,0,0,0,0,0,0,0,0,1,0,0,0,0,0,0,0,0,0,1,0,0,0,0,0,0,0,0,0,0,0,0,0,0,0,0,0,0,0,0,0,0,0,0,0,0,0,0,0,0,0,0,0],"id":0,"left_children":[1,3,5,7,9,11,13,15,17,19,21,23,25,-1,27,29,31,33,35,37,39,41,43,45,-1,47,49,51,53,55,-1,57,59,61,63,-1,-1,65,67,69,-1,-1,71,73,75,-1,-1,-1,-1,77,-1,-1,79,81,-1,-1,-1,-1,-1,-1,-1,-1,-1,-1,-1,-1,-1,-1,-1,-1,-1,-1,-1,-1,-1,-1,-1,-1,-1,-1,-1,-1,-1],"loss_changes":[6.0408386E1,2.2102352E1,6.5765877E0,9.056281E0,1.2032726E1,2.065651E0,4.733856E0,5.4297094E0,6.31724E0,5.237091E0,3.5772057E0,4.229542E0,2.4517975E0,0E0,3.4730809E0,1.5140724E0,4.5142217E0,3.5045042E0,2.148618E0,4.5991497E0,1.8901482E0,3.1888013E0,1.8335214E0,2.992208E0,0E0,1.8701298E0,1.2999992E0,3.7071435E0,1.8972764E0,9.3084145E-1,0E0,2.5930324E0,6.308656E0,1.8817225E0,3.7432008E0,0E0,0E0,5.9956417E0,4.198635E0,2.0882416E0,0E0,0E0,4.086154E0,1.5584418E-1,5.16129E-1,0E0,0E0,0E0,0E0,1.0651474E0,0E0,0E0,2.5697553E0,6.221576E-1,0E0,0E0,0E0,0E0,0E0,0E0,0E0,0E0,0E0,0E0,0E0,0E0,0E0,0E0,0E0,0E0,0E0,0E0,0E0,0E0,0E0,0E0,0E0,0E0,0E0,0E0,0E0,0E0,0E0],"parents":[2147483647,0,0,1,1,2,2,3,3,4,4,5,5,6,6,7,7,8,8,9,9,10,10,11,11,12,12,14,14,15,15,16,16,17,17,18,18,19,19,20,20,21,21,22,22,23,23,25,25,26,26,27,27,28,28,29,29,31,31,32,32,33,33,34,34,37,37,38,38,39,39,42,42,43,43,44,44,49,49,52,52,53,53],"right_children":[2,4,6,8,10,12,14,16,18,20,22,24,26,-1,28,30,32,34,36,38,40,42,44,46,-1,48,50,52,54,56,-1,58,60,62,64,-1,-1,66,68,70,-1,-1,72,74,76,-1,-1,-1,-1,78,-1,-1,80,82,-1,-1,-1,-1,-1,-1,-1,-1,-1,-1,-1,-1,-1,-1,-1,-1,-1,-1,-1,-1,-1,-1,-1,-1,-1,-1,-1,-1,-1],"split_conditions":[3.25E0,5E0,5E0,4E0,6E0,3E0,1.78E0,1.89E0,3.05E0,8E0,6E0,1.9E0,1.77E0,3.1034482E-1,1.6666666E0,5.25E0,1.99E0,3E0,3.1E0,3E0,1.8E1,1.1E1,4E0,1.3333334E0,-1.894737E-1,1.55E0,2.35E0,3.57E0,7.5E0,1.84E0,3.1034475E-2,1.75E0,1.4E0,1.88E0,1.95E0,3.4054056E-1,-3.600001E-2,6E0,1.6E0,2.3E0,-7.663455E-9,-1.5517244E-1,2.25E0,7E0,2E1,-1.2857145E-1,3.2727274E-1,-1.2857145E-1,2.5714284E-1,3.1E0,3.1034475E-2,3.1034482E-1,1.66E0,4.2E0,1.2857142E-1,7.2E-2,3.6233765E-1,-1.9870132E-1,8.780487E-2,-5.901641E-2,3.7358493E-1,7.2E-2,-2.1531104E-1,-1.4117649E-1,5.5900615E-2,-4.972389E-3,3.3157894E-1,-8.181819E-2,2.8421053E-1,3.8515285E-1,-7.663455E-9,3.0461538E-1,-1.4400001E-1,1.2857142E-1,-7.663455E-9,-2.0000003E-1,-7.663455E-9,-1.9150549E-1,-9.753488E-9,1.17391296E-1,-8.843933E-2,-4.3902453E-2,-1.9636366E-1],"split_indices":[55,3,3,2,2,2,86,35,20,3,7,47,87,0,126,28,81,71,67,125,4,1,120,123,0,18,56,64,25,86,0,139,139,90,86,0,0,56,103,79,0,0,135,2,0,0,0,0,0,104,0,0,81,61,0,0,0,0,0,0,0,0,0,0,0,0,0,0,0,0,0,0,0,0,0,0,0,0,0,0,0,0,0],"split_type":[0,0,0,0,0,0,0,0,0,0,0,0,0,0,0,0,0,0,0,0,0,0,0,0,0,0,0,0,0,0,0,0,0,0,0,0,0,0,0,0,0,0,0,0,0,0,0,0,0,0,0,0,0,0,0,0,0,0,0,0,0,0,0,0,0,0,0,0,0,0,0,0,0,0,0,0,0,0,0,0,0,0,0],"sum_hessian":[4.0177774E2,2.0222221E2,1.9955554E2,9.511111E1,1.0711111E2,1.4799998E2,5.1555553E1,3.3333332E1,6.1777775E1,8.4888885E1,2.2222221E1,9.333333E0,1.3866666E2,2.222222E0,4.9333332E1,1.1555555E1,2.1777777E1,5.6888885E1,4.8888884E0,5.7777775E1,2.7111109E1,1.0222221E1,1.1999999E1,3.9999998E0,5.333333E0,2.6666665E0,1.3599998E2,2.7111109E1,2.2222221E1,9.333333E0,2.222222E0,1.1111111E1,1.0666666E1,2.3999998E1,3.2888885E1,3.111111E0,1.7777777E0,2.4444443E1,3.3333332E1,2.5777777E1,1.3333333E0,2.222222E0,7.9999995E0,2.6666665E0,9.333333E0,1.3333333E0,2.6666665E0,1.3333333E0,1.3333333E0,1.3377777E2,2.222222E0,2.222222E0,2.4888887E1,2.0888887E1,1.3333333E0,1.7777777E0,7.5555553E0,7.5555553E0,3.5555553E0,5.7777777E0,4.8888884E0,1.7777777E0,2.2222221E1,1.5999999E1,1.6888887E1,1.911111E1,5.333333E0,2.6666665E0,3.0666664E1,2.4444443E1,1.3333333E0,6.222222E0,1.7777777E0,1.3333333E0,1.3333333E0,7.9999995E0,1.3333333E0,1.311111E2,2.6666665E0,6.666666E0,1.8222221E1,3.5555553E0,1.7333332E1],"tree_param":{"num_deleted":"0","num_feature":"141","num_nodes":"83","size_leaf_vector":"1"}},{"base_weights":[-2.3420694E-1,-3.568778E-2,-3.4993452E-1,-2.1524669E-1,1.4014594E-1,-3.6614704E-1,3.9622638E-1,4.095559E-2,-4.0519485E-1,7.1090005E-2,8.3606553E-1,-3.7820807E-1,5.454545E-1,-1.5517244E-1,3.2727274E-1,-1.2840472E-1,3E-1,2.7272725E-1,-4.5706376E-1,-2.588833E-1,2.157303E-1,3.6734694E-1,-1.2857145E-1,-3.2100177E-1,-5.8350956E-1,-7.663455E-9,2.5714284E-1,-2.5751078E-1,2.4545455E-1,2.5714284E-1,-1.2857145E-1,2.7272725E-1,-5.163205E-1,-4.630873E-1,3.1578943E-1,9.1304344E-1,8.571424E-2,-1.8927488E-2,-3.850932E-1,-6.556292E-1,2.1724138E-1,-1.1612905E-1,2.8800002E-1,2.5714284E-1,-1.2857145E-1,-1.689231E-1,1.2857142E-1,-1.8837212E-1,1.2413793E-1,2.6756757E-1,-1.5517244E-1,3.6734694E-1,3.1034475E-2,2E-1,-2.0127809E-2,-3.6363654E-2,3.1034482E-1,-1.3297962E-1,-1.9313319E-2,-8.630139E-2,-2.128535E-1],"categories":[],"categories_nodes":[],"categories_segments":[],"categories_sizes":[],"default_left":[0,0,0,0,0,1,0,0,0,0,0,0,0,0,0,0,0,0,1,0,0,0,0,0,0,0,0,0,0,0,0,0,0,0,0,0,0,0,0,0,0,0,0,0,0,0,0,0,0,0,0,0,0,0,0,0,0,0,0,0,0],"id":1,"left_children":[1,3,5,7,9,11,13,15,17,19,21,23,25,-1,-1,27,-1,29,31,33,35,-1,-1,37,39,-1,-1,41,-1,-1,-1,43,45,47,49,51,53,55,57,59,-1,-1,-1,-1,-1,-1,-1,-1,-1,-1,-1,-1,-1,-1,-1,-1,-1,-1,-1,-1,-1],"loss_changes":[9.240986E0,4.748502E0,3.2217865E0,3.6340382E0,3.5982642E0,2.9488983E0,4.301177E0,5.416209E0,1.6288519E0,3.4126782E0,3.8541317E0,2.7109833E0,6.233767E-1,0E0,0E0,3.7004669E0,0E0,1.8701298E0,1.8754215E0,2.7149093E0,4.4044666E0,0E0,0E0,3.7722893E0,5.4311256E0,0E0,0E0,4.456165E0,0E0,0E0,0E0,1.8701298E0,1.895606E0,2.652552E0,3.50076E0,1.8064432E0,3.8422637E0,3.920506E0,2.975191E0,7.9382324E-1,0E0,0E0,0E0,0E0,0E0,0E0,0E0,0E0,0E0,0E0,0E0,0E0,0E0,0E0,0E0,0E0,0E0,0E0,0E0,0E0,0E0],"parents":[2147483647,0,0,1,1,2,2,3,3,4,4,5,5,6,6,7,7,8,8,9,9,10,10,11,11,12,12,15,15,17,17,18,18,19,19,20,20,23,23,24,24,27,27,31,31,32,32,33,33,34,34,35,35,36,36,37,37,38,38,39,39],"right_children":[2,4,6,8,10,12,14,16,18,20,22,24,26,-1,-1,28,-1,30,32,34,36,-1,-1,38,40,-1,-1,42,-1,-1,-1,44,46,48,50,52,54,56,58,60,-1,-1,-1,-1,-1,-1,-1,-1,-1,-1,-1,-1,-1,-1,-1,-1,-1,-1,-1,-1,-1],"split_conditions":[3.75E0,3.5E0,3.1E1,6E0,9E0,2.12E0,6E0,2E0,3.1E0,2.52E0,1.99E0,8E0,6E0,-1.5517244E-1,3.2727274E-1,2.43E0,3E-1,2.88E0,2.1E0,3.89E0,2.62E0,3.6734694E-1,-1.2857145E-1,1E0,4.33E0,-7.663455E-9,2.5714284E-1,2.5E0,2.4545455E-1,2.5714284E-1,-1.2857145E-1,3.5E0,1.2E1,2.03E0,3.37E0,1.7E1,1E0,1.4285715E0,2.375E0,1.91E0,2.1724138E-1,-1.1612905E-1,2.8800002E-1,2.5714284E-1,-1.2857145E-1,-1.689231E-1,1.2857142E-1,-1.8837212E-1,1.2413793E-1,2.6756757E-1,-1.5517244E-1,3.6734694E-1,3.1034475E-2,2E-1,-2.0127809E-2,-3.6363654E-2,3.1034482E-1,-1.3297962E-1,-1.9313319E-2,-8.630139E-2,-2.128535E-1],"split_indices":[63,60,0,137,134,118,1,132,28,64,77,2,2,0,0,81,0,55,58,31,14,0,0,135,15,0,0,130,0,0,0,13,6,36,62,120,138,138,138,91,0,0,0,0,0,0,0,0,0,0,0,0,0,0,0,0,0,0,0,0,0],"split_type":[0,0,0,0,0,0,0,0,0,0,0,0,0,0,0,0,0,0,0,0,0,0,0,0,0,0,0,0,0,0,0,0,0,0,0,0,0,0,0,0,0,0,0,0,0,0,0,0,0,0,0,0,0,0,0,0,0,0,0,0,0],"sum_hessian":[4.0177774E2,1.4844444E2,2.5333331E2,7.333333E1,7.511111E1,2.4844443E2,4.8888884E0,3.1555553E1,4.1777775E1,6.933333E1,5.7777777E0,2.4577776E2,2.6666665E0,2.222222E0,2.6666665E0,2.7555553E1,3.9999998E0,2.6666665E0,3.9111107E1,2.0888887E1,4.8444443E1,4.444444E0,1.3333333E0,1.9422221E2,5.1555553E1,1.3333333E0,1.3333333E0,2.4888887E1,2.6666665E0,1.3333333E0,1.3333333E0,2.6666665E0,3.6444443E1,1.5555554E1,5.333333E0,6.666666E0,4.1777775E1,3.422222E1,1.5999998E2,4.9333332E1,2.222222E0,2.311111E1,1.7777777E0,1.3333333E0,1.3333333E0,3.511111E1,1.3333333E0,1.3333332E1,2.222222E0,3.111111E0,2.222222E0,4.444444E0,2.222222E0,7.9999995E0,3.3777775E1,3.1999998E1,2.222222E0,1.351111E2,2.4888887E1,7.1111107E0,4.222222E1],"tree_param":{"num_deleted":"0","num_feature":"141","num_nodes":"61","size_leaf_vector":"1"}},{"base_weights":[3.0206892E-1,-9.38834E-2,8.4786886E-1,-3.0295086E-1,4.451939E-1,9.362491E-1,1.6216213E-1,7.058823E-1,-3.602485E-1,6.641221E-1,1.4354025E-2,1.0442477E0,5.894428E-1,4.9586773E-1,-4.1095895E-1,3.3157894E-1,-8.1081115E-2,-1.5942034E-1,-5.053764E-1,4.3018866E-1,1.0729927E0,2.6756757E-1,-1.657459E-1,8.1386137E-1,1.2495202E0,5.5045832E-2,8.091286E-1,3.3157894E-1,-4.109593E-2,-1.918033E-1,1.2857142E-1,-1.4400001E-1,1.2857142E-1,-3.3241004E-1,7.806687E-2,1.7999999E-1,-5.334958E-1,5.2653056E-1,-1.5517244E-1,3.1034475E-2,1.2307693E0,2.4742265E-1,-5.806452E-1,8.7318087E-1,-2.727273E-1,1.2934132E0,3.1034475E-2,2.6756757E-1,-3.3333337E-1,-1.4400001E-1,9.1999996E-1,-3.4426233E-1,2.5714284E-1,-1.4603776E-1,2.5714274E-2,-1.0465118E-1,1.328859E-1,7.2E-2,-1.6546586E-1,1.8471617E-1,-1.4400001E-1,4.09901E-1,7.2E-2,-1.0975611E-1,1.7999999E-1,-7.663455E-9,-2.0000003E-1,1.6431534E-1,3.4698796E-1,-7.663455E-9,-1.2857145E-1,4.006452E-1,1.7999999E-1,8.181818E-2,-1.894737E-1,3.142857E-1,5.9999995E-2,-1.836735E-1,1.2857142E-1],"categories":[],"categories_nodes":[],"categories_segments":[],"categories_sizes":[],"default_left":[0,0,0,0,0,0,0,0,0,0,0,1,0,0,0,0,0,1,0,0,0,0,0,0,0,0,0,0,0,0,0,0,0,0,0,0,0,0,0,0,0,0,0,0,0,0,0,0,0,0,0,0,0,0,0,0,0,0,0,0,0,0,0,0,0,0,0,0,0,0,0,0,0,0,0,0,0,0,0],"id":2,"left_children":[1,3,5,7,9,11,13,15,17,19,21,23,25,27,29,-1,31,33,35,37,39,-1,41,43,45,47,49,-1,51,-1,-1,-1,-1,53,55,-1,57,59,-1,-1,61,63,65,67,69,71,-1,-1,73,-1,75,77,-1,-1,-1,-1,-1,-1,-1,-1,-1,-1,-1,-1,-1,-1,-1,-1,-1,-1,-1,-1,-1,-1,-1,-1,-1,-1,-1],"loss_changes":[8.712421E1,2.6545065E1,1.0116989E1,1.0048817E1,6.205305E0,4.99852E0,4.1351075E0,3.0579867E0,4.6119003E0,3.7150612E0,3.817972E0,4.3270493E0,4.403594E0,4.444755E0,1.8292003E0,0E0,1.0415444E0,2.8606663E0,3.2107697E0,2.959951E0,2.2012444E0,0E0,3.591179E0,3.854828E0,2.7782822E0,4.233573E0,4.268881E0,0E0,2.5038657E0,0E0,0E0,0E0,0E0,2.6309395E0,4.810352E0,0E0,1.4064789E0,2.7393498E0,0E0,0E0,1.4181881E0,2.5499623E0,5.16129E-1,4.29681E0,1.5584415E-1,8.2263947E-1,0E0,0E0,1.7990432E0,0E0,2.0876198E0,1.6661092E0,0E0,0E0,0E0,0E0,0E0,0E0,0E0,0E0,0E0,0E0,0E0,0E0,0E0,0E0,0E0,0E0,0E0,0E0,0E0,0E0,0E0,0E0,0E0,0E0,0E0,0E0,0E0],"parents":[2147483647,0,0,1,1,2,2,3,3,4,4,5,5,6,6,7,7,8,8,9,9,10,10,11,11,12,12,13,13,14,14,16,16,17,17,18,18,19,19,20,20,22,22,23,23,24,24,25,25,26,26,28,28,33,33,34,34,36,36,37,37,40,40,41,41,42,42,43,43,44,44,45,45,48,48,50,50,51,51],"right_children":[2,4,6,8,10,12,14,16,18,20,22,24,26,28,30,-1,32,34,36,38,40,-1,42,44,46,48,50,-1,52,-1,-1,-1,-1,54,56,-1,58,60,-1,-1,62,64,66,68,70,72,-1,-1,74,-1,76,78,-1,-1,-1,-1,-1,-1,-1,-1,-1,-1,-1,-1,-1,-1,-1,-1,-1,-1,-1,-1,-1,-1,-1,-1,-1,-1,-1],"split_conditions":[3.74E0,6E0,6E0,2E0,1.7E1,3E0,2.01E0,1.98E0,5E0,8E0,4E0,4.33E0,3E0,6E0,2.07E0,3.3157894E-1,3.7E0,2.25E0,3.38E0,1.8E1,2.25E0,2.6756757E-1,3.05E0,6.5E0,5E0,3E0,1E0,3.3157894E-1,7E0,-1.918033E-1,1.2857142E-1,-1.4400001E-1,1.2857142E-1,3E0,2.1E1,1.7999999E-1,2E-1,3.75E0,-1.5517244E-1,3.1034475E-2,7E0,1.9E0,4E0,6E0,2.1E1,2E0,3.1034475E-2,2.6756757E-1,1.62E0,-1.4400001E-1,2.02E0,2.07E0,2.5714284E-1,-1.4603776E-1,2.5714274E-2,-1.0465118E-1,1.328859E-1,7.2E-2,-1.6546586E-1,1.8471617E-1,-1.4400001E-1,4.09901E-1,7.2E-2,-1.0975611E-1,1.7999999E-1,-7.663455E-9,-2.0000003E-1,1.6431534E-1,3.4698796E-1,-7.663455E-9,-1.2857145E-1,4.006452E-1,1.7999999E-1,8.181818E-2,-1.894737E-1,3.142857E-1,5.9999995E-2,-1.836735E-1,1.2857142E-1],"split_indices":[76,2,3,3,120,8,47,80,3,2,137,57,7,137,91,0,16,29,111,5,27,0,20,58,9,120,120,0,2,0,0,0,0,8,122,0,136,73,0,0,3,86,3,2,0,127,0,0,36,0,52,90,0,0,0,0,0,0,0,0,0,0,0,0,0,0,0,0,0,0,0,0,0,0,0,0,0,0,0],"split_type":[0,0,0,0,0,0,0,0,0,0,0,0,0,0,0,0,0,0,0,0,0,0,0,0,0,0,0,0,0,0,0,0,0,0,0,0,0,0,0,0,0,0,0,0,0,0,0,0,0,0,0,0,0,0,0,0,0,0,0,0,0,0,0,0,0,0,0,0,0,0,0,0,0,0,0,0,0,0,0],"sum_hessian":[4.0177774E2,2.3333331E2,1.6844443E2,1.6844443E2,6.4888885E1,1.4888889E2,1.9555553E1,8.444444E0,1.5999998E2,4.2666664E1,2.2222221E1,1.1199999E2,3.6888885E1,1.2444444E1,7.1111107E0,5.333333E0,3.111111E0,6.799999E1,9.199999E1,2.8444443E1,1.4222221E1,3.111111E0,1.911111E1,5.5111107E1,5.6888885E1,1.1111111E1,2.5777777E1,5.333333E0,7.1111107E0,5.7777777E0,1.3333333E0,1.7777777E0,1.3333333E0,3.9111107E1,2.8888887E1,1.7777777E0,9.022221E1,2.6222221E1,2.222222E0,2.222222E0,1.1999999E1,9.777777E0,9.333333E0,5.2444443E1,2.6666665E0,5.4666664E1,2.222222E0,3.111111E0,7.9999995E0,1.7777777E0,2.3999998E1,5.7777777E0,1.3333333E0,2.8444443E1,1.0666666E1,1.3333332E1,1.5555554E1,1.7777777E0,8.844444E1,2.4444443E1,1.7777777E0,1.0222221E1,1.7777777E0,3.5555553E0,6.222222E0,1.3333333E0,7.9999995E0,2.5777777E1,2.6666664E1,1.3333333E0,1.3333333E0,5.0666664E1,3.9999998E0,2.6666665E0,5.333333E0,1.9999998E1,3.9999998E0,4.444444E0,1.3333333E0],"tree_param":{"num_deleted":"0","num_feature":"141","num_nodes":"79","size_leaf_vector":"1"}},{"base_weights":[-5.54804E-2,2.3894244E-1,-3.8837317E-1,-3.1492013E-2,4.5980895E-1,-4.8931798E-1,-1.128903E-1,2.9137516E-1,-2.2125481E-1,5.713511E-1,-1.7035384E-2,-6.520999E-2,-5.189327E-1,-3.9379293E-1,1.7472361E-1,1.7916767E-2,6.4857763E-1,-3.0999202E-1,6.073481E-1,8.879187E-1,4.4712397E-1,2.0917429E-1,-1.8457514E-1,5.158027E-1,-1.7099762E-1,2.5236166E-1,-5.378983E-1,3.616359E-2,-6.13831E-1,-2.2479595E-1,5.589092E-1,-5.448246E-1,4.400792E-1,-6.627845E-2,8.150181E-1,5.5275774E-1,-3.641713E-1,2.809965E-1,-4.0509418E-2,3.1181833E-2,9.4915956E-1,5.426157E-1,-7.5059295E-2,-1.0690702E-1,8.059245E-1,-1.1457651E-1,2.673159E-1,-1.20496355E-1,2.2822262E-1,-5.570317E-1,-5.725071E-2,-1.5382019E-1,3.3141226E-1,1.1940365E-2,-2.0043136E-1,3.8522625E-1,-1.871622E-1,-3.0213845E-1,8.649653E-1,1.1107847E-2,-1.9132803E-1,2.2382253E-1,-1.5920204E-1,2.759806E-1,-1.1659091E-2,2.4544917E-1,9.555032E-3,-1.2633476E-1,1.2386471E-1,3.0730668E-1,2.6932187E-2,2.1866746E-1,5.608805E-2,-1.6344182E-1,1.2132256E-1,-1.7204753E-1,7.206976E-2,6.8645505E-3,3.0187437E-1,-1.7139852E-1,4.737546E-2,2.788511E-1,-1.603994E-1,-9.200315E-3,2.5406805E-1,-1.400287E-1,2.5619948E-1,2.2051921E-2,-1.4233382E-1,3.2164443E-1,2.7633661E-2],"categories":[],"categories_nodes":[],"categories_segments":[],"categories_sizes":[],"default_left":[0,0,0,0,0,0,0,0,1,0,0,0,0,0,0,0,0,0,0,0,0,0,0,0,0,1,0,0,0,0,1,0,0,0,0,0,0,0,0,0,0,0,0,0,0,0,0,0,0,0,0,0,0,0,0,0,0,0,0,0,0,0,0,0,0,0,0,0,0,0,0,0,0,0,0,0,0,0,0,0,0,0,0,0,0,0,0,0,0,0,0],"id":3,"left_children":[1,3,5,7,9,11,13,15,17,19,21,23,25,27,29,31,33,35,37,39,41,43,-1,45,-1,47,49,51,53,55,57,59,61,-1,63,65,67,-1,-1,-1,69,71,73,75,77,-1,-1,-1,-1,79,81,-1,83,-1,-1,85,-1,87,89,-1,-1,-1,-1,-1,-1,-1,-1,-1,-1,-1,-1,-1,-1,-1,-1,-1,-1,-1,-1,-1,-1,-1,-1,-1,-1,-1,-1,-1,-1,-1,-1],"loss_changes":[3.8369843E1,1.2430092E1,5.0524883E0,5.847045E0,6.0987835E0,1.6506805E0,4.1532254E0,3.4432483E0,4.600842E0,3.2527676E0,3.1969285E0,3.1968715E0,1.9674988E0,2.470932E0,4.065997E0,5.2432714E0,2.3954363E0,2.7660537E0,1.6282833E0,1.1084099E0,3.4647217E0,3.3301797E0,0E0,2.0672479E0,0E0,1.5310707E0,1.0949974E0,1.742965E0,6.3593817E-1,3.477664E0,3.785746E0,5.359385E-1,4.134821E0,0E0,1.2059097E0,4.7707593E-1,2.4849858E0,0E0,0E0,0E0,1.4070568E0,3.7176342E0,2.8091488E0,2.1018512E0,9.294982E-1,0E0,0E0,0E0,0E0,1.293602E0,3.231966E0,0E0,1.3173565E0,0E0,0E0,2.7459376E0,0E0,3.0984777E-1,1.5225806E0,0E0,0E0,0E0,0E0,0E0,0E0,0E0,0E0,0E0,0E0,0E0,0E0,0E0,0E0,0E0,0E0,0E0,0E0,0E0,0E0,0E0,0E0,0E0,0E0,0E0,0E0,0E0,0E0,0E0,0E0,0E0,0E0],"parents":[2147483647,0,0,1,1,2,2,3,3,4,4,5,5,6,6,7,7,8,8,9,9,10,10,11,11,12,12,13,13,14,14,15,15,16,16,17,17,18,18,19,19,20,20,21,21,23,23,25,25,26,26,27,27,28,28,29,29,30,30,31,31,32,32,34,34,35,35,36,36,40,40,41,41,42,42,43,43,44,44,49,49,50,50,52,52,55,55,57,57,58,58],"right_children":[2,4,6,8,10,12,14,16,18,20,22,24,26,28,30,32,34,36,38,40,42,44,-1,46,-1,48,50,52,54,56,58,60,62,-1,64,66,68,-1,-1,-1,70,72,74,76,78,-1,-1,-1,-1,80,82,-1,84,-1,-1,86,-1,88,90,-1,-1,-1,-1,-1,-1,-1,-1,-1,-1,-1,-1,-1,-1,-1,-1,-1,-1,-1,-1,-1,-1,-1,-1,-1,-1,-1,-1,-1,-1,-1,-1],"split_conditions":[3.25E0,5E0,5E0,4E0,6E0,3E0,1.96E0,3.91E0,3.05E0,1.57E0,2.01E0,1.9E0,1.77E0,1E1,7E0,1.99E0,1.52E0,1.77E0,1.3333334E0,1E0,2.8E1,1.93E0,-1.8457514E-1,1.3333334E0,-1.7099762E-1,1.55E0,2.2E0,7E0,1.77E0,4.5E0,1.35E0,1.86E0,2.06E0,-6.627845E-2,2E0,1.4E1,2.6E0,2.809965E-1,-4.0509418E-2,3.1181833E-2,2.04E0,3E0,1.4285715E0,1.2E0,1E1,-1.1457651E-1,2.673159E-1,-1.20496355E-1,2.2822262E-1,2.3E1,3.72E0,-1.5382019E-1,7E0,1.1940365E-2,-2.0043136E-1,9E0,-1.871622E-1,1.25E0,5E0,1.1107847E-2,-1.9132803E-1,2.2382253E-1,-1.5920204E-1,2.759806E-1,-1.1659091E-2,2.4544917E-1,9.555032E-3,-1.2633476E-1,1.2386471E-1,3.0730668E-1,2.6932187E-2,2.1866746E-1,5.608805E-2,-1.6344182E-1,1.2132256E-1,-1.7204753E-1,7.206976E-2,6.8645505E-3,3.0187437E-1,-1.7139852E-1,4.737546E-2,2.788511E-1,-1.603994E-1,-9.200315E-3,2.5406805E-1,-1.400287E-1,2.5619948E-1,2.2051921E-2,-1.4233382E-1,3.2164443E-1,2.7633661E-2],"split_indices":[55,3,3,2,2,2,87,31,20,67,92,47,87,5,6,81,81,46,123,6,122,92,0,123,0,18,130,120,87,70,56,86,46,0,136,0,127,0,0,0,45,8,139,136,5,0,0,0,0,120,64,0,3,0,0,4,0,12,7,0,0,0,0,0,0,0,0,0,0,0,0,0,0,0,0,0,0,0,0,0,0,0,0,0,0,0,0,0,0,0,0],"split_type":[0,0,0,0,0,0,0,0,0,0,0,0,0,0,0,0,0,0,0,0,0,0,0,0,0,0,0,0,0,0,0,0,0,0,0,0,0,0,0,0,0,0,0,0,0,0,0,0,0,0,0,0,0,0,0,0,0,0,0,0,0,0,0,0,0,0,0,0,0,0,0,0,0,0,0,0,0,0,0,0,0,0,0,0,0,0,0,0,0,0,0],"sum_hessian":[3.8953726E2,2.0686253E2,1.8267474E2,9.338141E1,1.1348112E2,1.3311967E2,4.9555077E1,3.4369247E1,5.9012165E1,9.180755E1,2.167357E1,8.8977785E0,1.2422189E2,2.488327E1,2.4671806E1,2.0061335E1,1.4307911E1,5.3869076E1,5.1430907E0,2.4141165E1,6.766638E1,1.6198565E1,5.475006E0,4.126395E0,4.7713833E0,2.685882E0,1.2153601E2,8.706444E0,1.6176826E1,1.2297917E1,1.2373889E1,8.474411E0,1.1586924E1,2.246186E0,1.2061725E1,2.6392553E0,5.122982E1,3.3814464E0,1.7616445E0,1.9445893E0,2.2196577E1,5.7172165E1,1.0494216E1,1.1126194E1,5.0723715E0,1.2111471E0,2.9152484E0,1.2665005E0,1.4193817E0,1.1673035E2,4.805667E0,2.7875276E0,5.9189167E0,1.2606852E0,1.49161415E1,4.8772964E0,7.4206214E0,3.248231E0,9.125658E0,1.2500006E0,7.224411E0,8.985885E0,2.6010392E0,1.0672972E1,1.3887533E0,1.3703845E0,1.268871E0,4.8158688E1,3.0711334E0,2.0234133E1,1.9624429E0,3.6831905E1,2.034026E1,5.2320104E0,5.2622056E0,4.468331E0,6.6578627E0,1.2602832E0,3.8120883E0,1.1463882E2,2.0915308E0,1.2581905E0,3.5474763E0,4.0292387E0,1.8896776E0,1.7325997E0,3.1446965E0,1.2017393E0,2.0464916E0,6.8910728E0,2.2345853E0],"tree_param":{"num_deleted":"0","num_feature":"141","num_nodes":"91","size_leaf_vector":"1"}},{"base_weights":[-1.8588015E-1,-2.0667557E-2,-2.8658512E-1,-7.236781E-2,4.201129E-1,-1.5674229E-1,-3.7345415E-1,5.4975194E-1,-1.2046136E-1,7.0322376E-1,-1.284662E-1,6.5370536E-1,-2.0992479E-1,-3.997453E-1,1.11456476E-1,-1.2880898E-1,7.583432E-1,-1.4256628E-1,2.5354773E-1,8.979203E-1,-4.4442356E-2,-1.6862957E-1,2.3251235E-1,3.4430772E-1,-1.3325314E-1,1.2858985E-1,-3.1246257E-1,-4.1581246E-1,2.9904032E-1,2.4687155E-1,-3.835654E-1,-7.2214105E-3,9.1182595E-1,-1.9050723E-1,3.3695823E-1,3.2168382E-1,-6.573701E-3,4.822283E-1,-5.0343424E-1,-4.101135E-2,-4.2142406E-1,-4.772948E-1,-2.4869978E-1,2.5936458E-1,-1.2236007E-1,-1.599864E-1,2.4254529E-2,3.3442476E-1,4.935738E-3,-8.792904E-2,2.7735168E-2,2.4500842E-1,-8.1780985E-2,-2.3382839E-2,2.7517298E-1,-1.8205792E-1,1.5199258E-2,2.3137091E-1,-7.242565E-2,-1.4603525E-1,1.4023538E-1,-1.538097E-1,-1.8789642E-2,-1.6991338E-1,1.662436E-2],"categories":[],"categories_nodes":[],"categories_segments":[],"categories_sizes":[],"default_left":[0,0,0,0,0,0,0,0,0,0,0,0,0,0,0,0,0,0,0,0,0,0,0,0,0,1,0,0,0,0,0,0,0,1,0,0,0,0,0,0,0,0,0,0,0,0,0,0,0,0,0,0,0,0,0,0,0,0,0,0,0,0,0,0,0],"id":4,"left_children":[1,3,5,7,9,11,13,15,17,19,21,23,25,27,29,-1,31,33,-1,35,-1,-1,-1,-1,-1,37,39,41,43,-1,45,-1,47,49,51,-1,-1,53,55,57,59,61,63,-1,-1,-1,-1,-1,-1,-1,-1,-1,-1,-1,-1,-1,-1,-1,-1,-1,-1,-1,-1,-1,-1],"loss_changes":[6.3578243E0,3.3559017E0,2.6209755E0,3.999578E0,2.492418E0,4.3158975E0,1.849926E0,2.2889764E0,2.7427044E0,1.8496208E0,2.8296392E0,3.8794534E0,3.2243848E0,1.6349564E0,3.155993E0,0E0,1.0170474E0,2.8448257E0,0E0,1.3979931E0,0E0,0E0,0E0,0E0,0E0,5.16791E0,2.073874E0,1.2369118E0,1.7940632E0,0E0,4.212348E-1,0E0,1.2450094E0,3.2376766E0,3.5430899E0,0E0,0E0,3.6391027E0,5.118592E-1,3.6629367E0,3.152256E0,1.3679295E0,3.6614401E0,0E0,0E0,0E0,0E0,0E0,0E0,0E0,0E0,0E0,0E0,0E0,0E0,0E0,0E0,0E0,0E0,0E0,0E0,0E0,0E0,0E0,0E0],"parents":[2147483647,0,0,1,1,2,2,3,3,4,4,5,5,6,6,7,7,8,8,9,9,10,10,11,11,12,12,13,13,14,14,16,16,17,17,19,19,25,25,26,26,27,27,28,28,30,30,32,32,33,33,34,34,37,37,38,38,39,39,40,40,41,41,42,42],"right_children":[2,4,6,8,10,12,14,16,18,20,22,24,26,28,30,-1,32,34,-1,36,-1,-1,-1,-1,-1,38,40,42,44,-1,46,-1,48,50,52,-1,-1,54,56,58,60,62,64,-1,-1,-1,-1,-1,-1,-1,-1,-1,-1,-1,-1,-1,-1,-1,-1,-1,-1,-1,-1,-1,-1],"split_conditions":[3.75E0,3.77E0,8E0,2.54E0,1.98E0,1.93E0,2.4E1,1E0,1.3E1,3.89E0,1.6E1,1.65E0,1.86E0,2.7E1,9E0,-1.2880898E-1,3.38E0,2.4E0,2.5354773E-1,8E0,-4.4442356E-2,-1.6862957E-1,2.3251235E-1,3.4430772E-1,-1.3325314E-1,4.33E0,1.2E0,2E0,6.5E0,2.4687155E-1,4E0,-7.2214105E-3,9E0,3.4E0,3.69E0,3.2168382E-1,-6.573701E-3,5E0,2E0,4E0,2.09E0,2.6E0,2E0,2.5936458E-1,-1.2236007E-1,-1.599864E-1,2.4254529E-2,3.3442476E-1,4.935738E-3,-8.792904E-2,2.7735168E-2,2.4500842E-1,-8.1780985E-2,-2.3382839E-2,2.7517298E-1,-1.8205792E-1,1.5199258E-2,2.3137091E-1,-7.242565E-2,-1.4603525E-1,1.4023538E-1,-1.538097E-1,-1.8789642E-2,-1.6991338E-1,1.662436E-2],"split_indices":[63,22,120,113,77,106,1,129,6,72,0,12,51,140,3,0,34,130,0,6,0,0,0,0,0,57,135,127,12,0,8,0,6,70,31,0,0,137,136,2,87,135,125,0,0,0,0,0,0,0,0,0,0,0,0,0,0,0,0,0,0,0,0,0,0],"split_type":[0,0,0,0,0,0,0,0,0,0,0,0,0,0,0,0,0,0,0,0,0,0,0,0,0,0,0,0,0,0,0,0,0,0,0,0,0,0,0,0,0,0,0,0,0,0,0,0,0,0,0,0,0,0,0,0,0,0,0,0,0,0,0,0,0],"sum_hessian":[3.8148883E2,1.4492908E2,2.3655974E2,1.304626E2,1.4466471E1,9.59492E1,1.4061053E2,8.613303E0,1.218493E2,9.356081E0,5.1103897E0,5.21322E0,9.073598E1,1.3354553E2,7.0650063E0,1.3268325E0,7.286471E0,1.1995564E2,1.8936584E0,7.57019E0,1.7858912E0,3.7084258E0,1.4019637E0,3.5641701E0,1.6490501E0,2.1035627E1,6.9700356E1,1.3093979E2,2.605753E0,2.6270423E0,4.437964E0,1.3332222E0,5.9532485E0,1.0960089E2,1.0354747E1,6.2245593E0,1.3456309E0,1.3640387E1,7.39524E0,2.035849E1,4.9341866E1,9.436565E1,3.6574135E1,1.323769E0,1.2819839E0,3.2438679E0,1.194096E0,4.6535745E0,1.2996744E0,8.04111E1,2.9189789E1,5.604271E0,4.7504754E0,6.3212743E0,7.319113E0,6.151761E0,1.2434787E0,3.46531E0,1.6893179E1,4.6383583E1,2.9582815E0,8.6724625E1,7.6410246E0,1.7466366E1,1.910777E1],"tree_param":{"num_deleted":"0","num_feature":"141","num_nodes":"65","size_leaf_vector":"1"}},{"base_weights":[2.2610512E-1,-7.7899836E-2,6.0208267E-1,-2.5396037E-1,3.3456424E-1,6.600691E-1,1.15187846E-1,5.5767614E-1,-3.0535316E-1,6.2790054E-1,1.3273595E-1,4.2032617E-1,7.396703E-1,3.5355654E-1,-4.6071014E-1,7.4672925E-1,-1.2235224E-1,-2.1879087E-1,-5.4695886E-1,8.417519E-1,-5.1544096E-2,2.4567974E-1,3.2058395E-2,5.4269785E-1,-3.9049882E-1,8.10515E-1,4.5742884E-1,5.9116966E-1,-3.5220364E-1,-1.750674E-1,7.491099E-3,-3.6555577E-2,2.9520527E-1,-3.1899315E-1,1.0158886E-2,-5.9202325E-1,8.293066E-2,9.497836E-1,-1.3023536E-1,1.6771707E-1,-4.4742522E-1,-5.6659096E-1,2.3038872E-1,8.017323E-2,7.02594E-1,1.0983218E-1,-2.0367199E-1,8.2915616E-1,-3.544112E-2,-3.7647048E-1,6.012726E-1,7.993943E-1,-6.617951E-2,7.1525676E-3,-1.529051E-1,-1.7475526E-1,-6.2093306E-2,-4.0393118E-2,1.7772423E-1,2.010353E-2,-1.8478648E-1,3.0704406E-1,-7.7393376E-3,-1.7586303E-1,-1.0531819E-2,-2.5597075E-3,-1.9556886E-1,-6.9822095E-2,1.4018363E-1,2.1511203E-1,-9.038121E-2,3.2536274E-1,1.4235371E-1,2.9065868E-1,2.0652671E-1,-1.6203706E-1,6.47335E-3,-1.20060835E-2,2.3590909E-1,-6.3933767E-3,2.8040427E-1],"categories":[],"categories_nodes":[],"categories_segments":[],"categories_sizes":[],"default_left":[0,0,0,0,0,0,0,0,0,0,0,0,0,0,0,0,0,0,1,0,1,0,0,0,0,0,0,1,0,0,0,0,0,1,1,0,0,0,0,0,0,0,0,0,0,0,0,0,0,0,0,0,0,0,0,0,0,0,0,0,0,0,0,0,0,0,0,0,0,0,0,0,0,0,0,0,0,0,0,0,0],"id":5,"left_children":[1,3,5,7,9,11,13,15,17,19,21,23,25,27,29,31,-1,33,35,37,39,-1,41,43,45,47,49,51,53,-1,-1,-1,-1,55,57,59,-1,61,-1,-1,63,65,67,69,71,-1,-1,73,-1,75,77,79,-1,-1,-1,-1,-1,-1,-1,-1,-1,-1,-1,-1,-1,-1,-1,-1,-1,-1,-1,-1,-1,-1,-1,-1,-1,-1,-1,-1,-1],"loss_changes":[4.6940422E1,1.6622639E1,5.105835E0,6.851509E0,3.9756055E0,2.8149033E0,3.010473E0,2.1101844E0,3.0442295E0,4.0647936E0,2.8671916E0,4.492776E0,2.0616684E0,2.7633982E0,4.027903E-1,1.8976655E0,0E0,2.5966234E0,1.6195965E0,3.3218107E0,2.0795019E0,0E0,4.5906005E0,2.746973E0,1.6099975E0,1.758892E0,3.4295158E0,2.1662326E0,2.7653497E-1,0E0,0E0,0E0,0E0,2.2014284E0,3.0629544E0,6.3303375E-1,0E0,1.4481297E0,0E0,0E0,2.7393317E-1,4.5321655E-1,3.2824128E0,2.8557844E0,1.9279737E0,0E0,0E0,1.1847687E0,0E0,3.0763143E-1,2.7805357E0,1.0841918E0,0E0,0E0,0E0,0E0,0E0,0E0,0E0,0E0,0E0,0E0,0E0,0E0,0E0,0E0,0E0,0E0,0E0,0E0,0E0,0E0,0E0,0E0,0E0,0E0,0E0,0E0,0E0,0E0,0E0],"parents":[2147483647,0,0,1,1,2,2,3,3,4,4,5,5,6,6,7,7,8,8,9,9,10,10,11,11,12,12,13,13,14,14,15,15,17,17,18,18,19,19,20,20,22,22,23,23,24,24,25,25,26,26,27,27,28,28,33,33,34,34,35,35,37,37,40,40,41,41,42,42,43,43,44,44,47,47,49,49,50,50,51,51],"right_children":[2,4,6,8,10,12,14,16,18,20,22,24,26,28,30,32,-1,34,36,38,40,-1,42,44,46,48,50,52,54,-1,-1,-1,-1,56,58,60,-1,62,-1,-1,64,66,68,70,72,-1,-1,74,-1,76,78,80,-1,-1,-1,-1,-1,-1,-1,-1,-1,-1,-1,-1,-1,-1,-1,-1,-1,-1,-1,-1,-1,-1,-1,-1,-1,-1,-1,-1,-1],"split_conditions":[3.74E0,6E0,6E0,2E0,4E0,5E0,2.04E0,2.01E0,7E0,1.875E0,7E0,1.9E1,3E0,1.6666666E0,1.9E1,1E1,-1.2235224E-1,3E0,2.3E0,5E0,2.3E0,2.4567974E-1,1.2222222E0,3E0,1E0,2.15E0,7.777778E-1,8E0,9E0,-1.750674E-1,7.491099E-3,-3.6555577E-2,2.9520527E-1,1.85E0,3.4E0,3.3E0,8.293066E-2,2.07E0,-1.3023536E-1,1.6771707E-1,2.5E0,1.84E0,5E0,1E1,1.3333334E0,1.0983218E-1,-2.0367199E-1,1.9E1,-3.544112E-2,8E0,1.91E0,3E0,-6.617951E-2,7.1525676E-3,-1.529051E-1,-1.7475526E-1,-6.2093306E-2,-4.0393118E-2,1.7772423E-1,2.010353E-2,-1.8478648E-1,3.0704406E-1,-7.7393376E-3,-1.7586303E-1,-1.0531819E-2,-2.5597075E-3,-1.9556886E-1,-6.9822095E-2,1.4018363E-1,2.1511203E-1,-9.038121E-2,3.2536274E-1,1.4235371E-1,2.9065868E-1,2.0652671E-1,-1.6203706E-1,6.47335E-3,-1.20060835E-2,2.3590909E-1,-6.3933767E-3,2.8040427E-1],"split_indices":[76,2,3,3,3,2,47,92,3,130,140,0,8,135,1,122,0,8,79,9,68,0,138,7,7,56,138,70,4,0,0,0,0,58,18,25,0,93,0,0,130,86,7,4,123,0,0,0,0,2,91,2,0,0,0,0,0,0,0,0,0,0,0,0,0,0,0,0,0,0,0,0,0,0,0,0,0,0,0,0,0],"split_type":[0,0,0,0,0,0,0,0,0,0,0,0,0,0,0,0,0,0,0,0,0,0,0,0,0,0,0,0,0,0,0,0,0,0,0,0,0,0,0,0,0,0,0,0,0,0,0,0,0,0,0,0,0,0,0,0,0,0,0,0,0,0,0,0,0,0,0,0,0,0,0,0,0,0,0,0,0,0,0,0,0],"sum_hessian":[4.0927045E2,2.2673315E2,1.825373E2,1.5917395E2,6.7559204E1,1.627938E2,1.9743502E1,8.892064E0,1.5028188E2,2.6676556E1,4.088265E1,4.2144188E1,1.20649605E2,1.4236839E1,5.506662E0,7.6255455E0,1.2665186E0,1.1204431E2,3.8237576E1,2.0108606E1,6.567951E0,4.3179846E0,3.6564663E1,3.690507E1,5.239119E0,9.4945786E1,2.570382E1,1.0772389E1,3.4644496E0,4.234151E0,1.272511E0,1.7406116E0,5.884934E0,7.76616E1,3.438271E1,3.651984E1,1.7177348E0,1.8774492E1,1.3341132E0,2.4212573E0,4.1466937E0,8.637135E0,2.7927528E1,9.86639E0,2.703868E1,1.371564E0,3.867555E0,9.318244E1,1.7633471E0,3.5435753E0,2.2160244E1,8.58541E0,2.1869798E0,1.273078E0,2.1913717E0,2.1911922E1,5.5749676E1,2.8150614E1,6.232096E0,1.2166076E0,3.530323E1,1.7410208E1,1.3642855E0,2.7868974E0,1.3597963E0,1.2910743E0,7.3460603E0,9.456747E0,1.8470781E1,3.36624E0,6.5001507E0,8.705415E0,1.8333263E1,4.3809013E1,4.937343E1,2.258209E0,1.2853663E0,5.138936E0,1.7021307E1,1.3341801E0,7.25123E0],"tree_param":{"num_deleted":"0","num_feature":"141","num_nodes":"81","size_leaf_vector":"1"}},{"base_weights":[-4.7103252E-2,-2.6077205E-1,2.6547143E-1,-3.7390834E-1,-2.5684461E-2,2.8172836E-2,4.23665E-1,-4.6234953E-1,-4.96686E-2,2.1186548E-1,-2.2087935E-1,1.00791335E-1,-5.016618E-1,6.882267E-1,2.9021144E-1,-4.7666782E-1,1.4171018E-1,3.5442945E-1,-2.7627358E-1,5.01085E-1,-1.7873943E-1,-3.224254E-1,2.1258307E-1,-4.807378E-2,4.6378642E-1,-1.7722124E-1,-1.2161129E-2,-4.7299687E-2,7.3765546E-1,3.5992107E-1,-3.9281285E-1,-4.7489174E-2,-5.035048E-1,6.9014025E-1,-1.5193588E-1,-5.010701E-1,3.3911937E-1,-4.6070933E-2,7.0842063E-1,1.985923E-1,-3.7804404E-1,-4.502473E-1,9.111564E-2,-1.4767064E-1,5.837564E-1,4.8606822E-1,-1.8363656E-1,-1.3794E-1,6.0477877E-1,7.875609E-1,1.4613573E-2,2.4967659E-1,2.6784056E-1,-1.879697E-1,8.2245015E-2,1.4189579E-1,-1.5525565E-1,-1.596609E-1,-1.9540993E-2,-1.3245747E-2,2.5249565E-1,5.0112925E-2,-1.815496E-1,2.8273356E-1,-1.37183E-1,-1.623496E-1,1.6160312E-1,-6.6700904E-3,2.678923E-1,-1.4948305E-1,9.9383496E-2,5.6876604E-2,-1.5201195E-1,1.19380616E-1,-1.5039323E-1,-3.528781E-2,2.4845968E-1,2.549839E-1,-1.3742411E-1,-1.0231074E-1,6.859336E-2,2.4482735E-1,-6.7554966E-2,2.5299877E-1,9.86279E-2,9.3085736E-2,-1.5596256E-1],"categories":[],"categories_nodes":[],"categories_segments":[],"categories_sizes":[],"default_left":[0,0,0,0,0,0,0,0,1,0,0,0,0,0,0,0,0,0,0,0,0,0,0,0,0,0,0,0,0,0,0,0,1,0,0,0,0,0,1,0,0,0,0,0,0,0,1,0,0,0,0,0,1,0,0,0,0,0,0,0,0,0,0,0,0,0,0,0,0,0,0,0,0,0,0,0,0,0,0,0,0,0,0,0,0,0,0],"id":6,"left_children":[1,3,5,7,9,11,13,15,17,19,21,23,25,27,29,31,-1,33,35,37,39,41,43,45,47,-1,-1,-1,49,51,53,55,57,59,-1,61,63,65,67,-1,69,71,73,-1,75,77,79,-1,81,83,-1,-1,85,-1,-1,-1,-1,-1,-1,-1,-1,-1,-1,-1,-1,-1,-1,-1,-1,-1,-1,-1,-1,-1,-1,-1,-1,-1,-1,-1,-1,-1,-1,-1,-1,-1,-1],"loss_changes":[2.4766474E1,5.8456917E0,5.6429396E0,4.2368736E0,3.4131143E0,2.4101217E0,2.9889488E0,1.7856064E0,3.1157148E0,3.8466449E0,1.8442522E0,2.9817245E0,2.865548E-1,1.3519506E0,3.082027E0,1.304472E0,0E0,3.8981774E0,3.168703E0,2.2302256E0,2.744487E0,1.7897441E0,2.4481587E0,2.9671633E0,2.3644032E0,0E0,0E0,0E0,9.2768097E-1,2.2371774E0,1.1380286E0,2.1753664E0,1.329565E0,1.0670547E0,0E0,1.2333875E0,3.504246E0,2.1044645E0,1.9224038E0,0E0,1.245582E0,1.015059E0,1.7704757E0,0E0,1.1034552E0,3.2475119E0,2.182141E0,0E0,2.6972833E0,3.9141655E-1,0E0,0E0,1.7932532E0,0E0,0E0,0E0,0E0,0E0,0E0,0E0,0E0,0E0,0E0,0E0,0E0,0E0,0E0,0E0,0E0,0E0,0E0,0E0,0E0,0E0,0E0,0E0,0E0,0E0,0E0,0E0,0E0,0E0,0E0,0E0,0E0,0E0,0E0],"parents":[2147483647,0,0,1,1,2,2,3,3,4,4,5,5,6,6,7,7,8,8,9,9,10,10,11,11,12,12,13,13,14,14,15,15,17,17,18,18,19,19,20,20,21,21,22,22,23,23,24,24,28,28,29,29,30,30,31,31,32,32,33,33,35,35,36,36,37,37,38,38,40,40,41,41,42,42,44,44,45,45,46,46,48,48,49,49,52,52],"right_children":[2,4,6,8,10,12,14,16,18,20,22,24,26,28,30,32,-1,34,36,38,40,42,44,46,48,-1,-1,-1,50,52,54,56,58,60,-1,62,64,66,68,-1,70,72,74,-1,76,78,80,-1,82,84,-1,-1,86,-1,-1,-1,-1,-1,-1,-1,-1,-1,-1,-1,-1,-1,-1,-1,-1,-1,-1,-1,-1,-1,-1,-1,-1,-1,-1,-1,-1,-1,-1,-1,-1,-1,-1],"split_conditions":[2.9E0,5E0,5E0,1.94E0,1.95E0,2E0,3E0,2.15E0,3.25E0,2.1E1,2.1E0,1.3333334E0,4.27E0,3.3333334E-1,2.03E0,3E0,1.4171018E-1,1.98E0,3.83E0,1.4E0,2.04E0,7E0,9E0,3E0,3.36E0,-1.7722124E-1,-1.2161129E-2,-4.7299687E-2,4E0,7E0,5.25E0,1.9E0,2.06E0,7E0,-1.5193588E-1,3.3333334E-1,3E0,1.98E0,1.33E0,1.985923E-1,2.2E1,3.25E0,1.99E0,-1.4767064E-1,3.44E0,7E0,3.7E0,-1.3794E-1,7E0,1E1,1.4613573E-2,2.4967659E-1,2.28E0,-1.879697E-1,8.2245015E-2,1.4189579E-1,-1.5525565E-1,-1.596609E-1,-1.9540993E-2,-1.3245747E-2,2.5249565E-1,5.0112925E-2,-1.815496E-1,2.8273356E-1,-1.37183E-1,-1.623496E-1,1.6160312E-1,-6.6700904E-3,2.678923E-1,-1.4948305E-1,9.9383496E-2,5.6876604E-2,-1.5201195E-1,1.19380616E-1,-1.5039323E-1,-3.528781E-2,2.4845968E-1,2.549839E-1,-1.3742411E-1,-1.0231074E-1,6.859336E-2,2.4482735E-1,-6.7554966E-2,2.5299877E-1,9.86279E-2,9.3085736E-2,-1.5596256E-1],"split_indices":[71,3,3,83,86,126,2,47,58,122,49,129,63,133,52,2,0,46,22,139,91,3,140,7,63,0,0,0,9,5,12,47,119,1,0,132,3,51,27,0,120,69,47,0,22,128,28,0,2,128,0,0,79,0,0,0,0,0,0,0,0,0,0,0,0,0,0,0,0,0,0,0,0,0,0,0,0,0,0,0,0,0,0,0,0,0,0],"split_type":[0,0,0,0,0,0,0,0,0,0,0,0,0,0,0,0,0,0,0,0,0,0,0,0,0,0,0,0,0,0,0,0,0,0,0,0,0,0,0,0,0,0,0,0,0,0,0,0,0,0,0,0,0,0,0,0,0,0,0,0,0,0,0,0,0,0,0,0,0,0,0,0,0,0,0,0,0,0,0,0,0,0,0,0,0,0,0],"sum_hessian":[3.687887E2,2.1914915E2,1.4963954E2,1.4754997E2,7.159918E1,6.032579E1,8.931375E1,1.1559404E2,3.195593E1,3.225717E1,3.9342014E1,5.37664E1,6.55939E0,2.8552835E1,6.0760918E1,1.14332695E2,1.2613434E0,1.1278761E1,2.067717E1,1.8371405E1,1.3885766E1,3.2082336E1,7.2596784E0,3.8744682E1,1.5021718E1,5.2618723E0,1.2975178E0,1.4554508E0,2.7097385E1,5.5563175E1,5.1977434E0,6.8915844E0,1.0744111E2,8.257133E0,3.0216284E0,1.5280968E1,5.396203E0,5.262236E0,1.3109169E1,2.216141E0,1.1669624E1,2.4439531E1,7.6428046E0,2.3917809E0,4.8678975E0,7.319391E0,3.142529E1,1.6900015E0,1.3331717E1,2.5133621E1,1.9637624E0,7.7533584E0,4.780982E1,3.8936806E0,1.3040628E0,3.2673166E0,3.6242678E0,1.0063864E2,6.802472E0,1.5335354E0,6.723597E0,1.9783884E0,1.3302579E1,2.9659219E0,2.4302812E0,2.8899262E0,2.3723102E0,2.8208504E0,1.0288319E1,1.0232678E1,1.4369463E0,1.7904866E0,2.2649044E1,5.251388E0,2.3914165E0,1.3921578E0,3.4757395E0,5.3552384E0,1.9641523E0,2.2867735E1,8.557556E0,1.0639549E1,2.692168E0,2.1662397E1,3.4712245E0,4.594046E1,1.8693563E0],"tree_param":{"num_deleted":"0","num_feature":"141","num_nodes":"87","size_leaf_vector":"1"}},{"base_weights":[-1.4565864E-1,-4.758528E-3,-2.3524106E-1,-1.4452688E-1,1.2254938E-1,-2.510092E-1,3.9951062E-1,3.525935E-1,-2.1393381E-1,1.7615813E-1,-4.6931165E-1,-1.9904362E-1,-4.53458E-1,-1.3043453E-1,2.7366185E-1,2.7149594E-1,-7.335913E-2,-8.333815E-3,-3.6260688E-1,2.2080642E-1,-4.2016134E-1,-1.7316812E-1,-6.259699E-3,7.689418E-2,-2.601923E-1,-5.26943E-1,1.7221001E-1,1.4010552E-1,-1.5166125E-1,5.833053E-1,-1.856187E-1,2.4346006E-1,-4.2026433E-1,3.6168092E-1,-1.7939705E-2,2.3222843E-3,-1.6482951E-1,5.3839076E-1,-1.215527E-1,-3.5063E-1,-1.0666653E-1,-5.646348E-1,1.0438166E-1,2.6474157E-1,-4.209885E-2,8.643484E-2,-1.08478375E-1,2.1284305E-1,-1.1524698E-1,-3.629438E-2,-1.801301E-1,-6.525935E-2,1.503444E-1,8.198926E-2,-1.0520779E-1,3.5066437E-2,3.3118752E-1,-1.7442796E-1,1.9042317E-2,-1.19889215E-1,3.64774E-2,-8.351326E-2,1.2240837E-1,-1.53145045E-2,-1.8294957E-1],"categories":[],"categories_nodes":[],"categories_segments":[],"categories_sizes":[],"default_left":[0,0,0,0,0,0,0,0,0,0,0,0,0,0,0,0,0,0,1,0,0,0,0,0,0,1,0,0,0,0,0,0,0,0,0,0,0,0,0,0,0,0,0,0,0,0,0,0,0,0,0,0,0,0,0,0,0,0,0,0,0,0,0,0,0],"id":7,"left_children":[1,3,5,7,9,11,13,15,17,19,21,23,25,-1,-1,-1,27,29,31,33,35,-1,-1,37,39,41,-1,-1,-1,43,45,47,49,51,53,-1,-1,55,57,59,61,63,-1,-1,-1,-1,-1,-1,-1,-1,-1,-1,-1,-1,-1,-1,-1,-1,-1,-1,-1,-1,-1,-1,-1],"loss_changes":[4.5565915E0,2.5331206E0,2.3094559E0,2.4162955E0,2.4471686E0,2.1819935E0,2.8501172E0,2.1109452E0,1.8357363E0,1.9314599E0,3.0069053E-1,2.950077E0,3.5744257E0,0E0,0E0,0E0,1.5979149E0,2.8634696E0,1.3214121E0,2.1894372E0,2.894029E-1,0E0,0E0,3.0210829E0,1.9394627E0,1.5472479E0,0E0,0E0,0E0,1.4872246E0,1.8523682E0,1.3441359E0,1.6648769E0,3.4102263E0,2.5223103E0,0E0,0E0,2.228324E0,2.0266466E0,2.1117163E0,4.9052453E0,8.8930607E-1,0E0,0E0,0E0,0E0,0E0,0E0,0E0,0E0,0E0,0E0,0E0,0E0,0E0,0E0,0E0,0E0,0E0,0E0,0E0,0E0,0E0,0E0,0E0],"parents":[2147483647,0,0,1,1,2,2,3,3,4,4,5,5,6,6,7,7,8,8,9,9,10,10,11,11,12,12,16,16,17,17,18,18,19,19,20,20,23,23,24,24,25,25,29,29,30,30,31,31,32,32,33,33,34,34,37,37,38,38,39,39,40,40,41,41],"right_children":[2,4,6,8,10,12,14,16,18,20,22,24,26,-1,-1,-1,28,30,32,34,36,-1,-1,38,40,42,-1,-1,-1,44,46,48,50,52,54,-1,-1,56,58,60,62,64,-1,-1,-1,-1,-1,-1,-1,-1,-1,-1,-1,-1,-1,-1,-1,-1,-1,-1,-1,-1,-1,-1,-1],"split_conditions":[3.75E0,3.5E0,3.1E1,1.86E0,2.3E1,8E0,6E0,2.15E0,6E0,5E0,7E0,1E0,4.33E0,-1.3043453E-1,2.7366185E-1,2.7149594E-1,1.1E1,3E0,2.1E0,2.02E0,1.2E1,-1.7316812E-1,-6.259699E-3,4.8E0,7E0,2.08E0,1.7221001E-1,1.4010552E-1,-1.5166125E-1,3.3E0,1.87E0,3.5E0,3.3E0,8E0,2.45E0,2.3222843E-3,-1.6482951E-1,5E0,1.89E0,1.83E0,2E0,1.25E0,1.0438166E-1,2.6474157E-1,-4.209885E-2,8.643484E-2,-1.08478375E-1,2.1284305E-1,-1.1524698E-1,-3.629438E-2,-1.801301E-1,-6.525935E-2,1.503444E-1,8.198926E-2,-1.0520779E-1,3.5066437E-2,3.3118752E-1,-1.7442796E-1,1.9042317E-2,-1.19889215E-1,3.64774E-2,-8.351326E-2,1.2240837E-1,-1.53145045E-2,-1.8294957E-1],"split_indices":[63,60,0,91,120,2,1,90,137,8,3,135,15,0,0,0,0,2,58,47,0,0,0,14,6,118,0,0,0,66,92,13,54,140,65,0,0,125,88,42,138,18,0,0,0,0,0,0,0,0,0,0,0,0,0,0,0,0,0,0,0,0,0,0,0],"split_type":[0,0,0,0,0,0,0,0,0,0,0,0,0,0,0,0,0,0,0,0,0,0,0,0,0,0,0,0,0,0,0,0,0,0,0,0,0,0,0,0,0,0,0,0,0,0,0,0,0,0,0,0,0,0,0,0,0,0,0,0,0,0,0,0,0],"sum_hessian":[3.600877E2,1.403658E2,2.1972191E2,6.684404E1,7.352176E1,2.149859E2,4.7360044E0,7.689397E0,5.9154648E1,6.8059525E1,5.4622335E0,1.7265192E2,4.2333984E1,1.8604784E0,2.875526E0,2.8581772E0,4.831219E0,2.5267824E1,3.388682E1,6.390451E1,4.155011E0,4.1712737E0,1.2909596E0,3.1272959E1,1.4137895E2,3.9963028E1,2.3709548E0,2.1110442E0,2.7201753E0,5.2977705E0,1.9970055E1,2.6637936E0,3.1223028E1,3.986617E1,2.4038343E1,1.1821275E0,2.972884E0,8.888758E0,2.2384201E1,8.81616E1,5.3217358E1,3.8652416E1,1.3106117E0,3.5928915E0,1.7048793E0,5.2363415E0,1.4733713E1,1.4538519E0,1.2099415E0,1.236115E1,1.8861877E1,7.627817E0,3.223835E1,1.2914121E1,1.1124222E1,5.7844405E0,3.1043172E0,5.8075347E0,1.6576666E1,8.0012695E1,8.148904E0,4.02488E1,1.2968559E1,3.2986326E0,3.5353783E1],"tree_param":{"num_deleted":"0","num_feature":"141","num_nodes":"65","size_leaf_vector":"1"}},{"base_weights":[1.7469113E-1,-6.670293E-2,4.6011695E-1,-2.1580386E-1,2.625446E-1,5.0446796E-1,7.731033E-2,4.6058342E-1,-2.6127285E-1,4.1154897E-1,-4.83297E-2,4.6025816E-1,2.5996193E-1,3.3458227E-1,-3.2707235E-1,6.177622E-1,-1.1252387E-1,-1.8534976E-1,-4.9011603E-1,2.3060094E-1,7.27938E-1,2.0487785E-1,-3.9695972E-1,4.772311E-1,-1.1773357E-1,-1.4699411E-1,5.706716E-1,-4.8441643E-1,8.432697E-2,-3.2683823E-2,2.434359E-1,-2.897299E-1,3.7991602E-2,-5.404066E-1,7.717861E-2,4.8907658E-1,-2.0364939E-1,2.7446744E-1,1.9296204E-1,-1.5502244E-1,4.5787308E-1,-1.9239987E-1,8.38718E-2,4.9224263E-1,-1.4616731E-1,2.6007771E-1,7.626912E-2,-2.602495E-3,-1.7456771E-1,-1.3501094E-1,-2.2623938E-2,6.895192E-2,-9.601254E-2,-1.7807093E-1,-2.6460951E-3,1.5276472E-2,2.3333803E-1,2.0511444E-1,-1.4949976E-1,1.3949522E-1,-1.22901194E-1,2.2020145E-1,-9.0793155E-2,1.8122599E-1,1.0101213E-1,1.3314633E-1,-1.2941234E-1],"categories":[],"categories_nodes":[],"categories_segments":[],"categories_sizes":[],"default_left":[0,0,0,0,0,1,0,0,0,0,0,1,0,0,0,0,0,0,0,0,0,0,0,0,0,0,0,0,0,0,0,0,0,0,0,0,0,0,0,0,0,0,0,0,0,0,0,0,0,0,0,0,0,0,0,0,0,0,0,0,0,0,0,0,0,0,0],"id":8,"left_children":[1,3,5,7,9,11,13,15,17,19,21,23,-1,25,27,29,-1,31,33,35,37,39,41,43,-1,-1,45,47,-1,-1,-1,49,51,53,-1,55,57,-1,59,-1,61,-1,-1,63,-1,-1,65,-1,-1,-1,-1,-1,-1,-1,-1,-1,-1,-1,-1,-1,-1,-1,-1,-1,-1,-1,-1],"loss_changes":[2.7644901E1,1.0759278E1,3.0810356E0,4.752265E0,3.1885867E0,2.2344856E0,2.2173717E0,1.5253158E0,2.3721695E0,2.4855175E0,2.1168907E0,2.3399963E0,0E0,2.7864995E0,9.384361E-1,1.3083823E0,0E0,2.5299895E0,1.4435263E0,3.573328E0,1.4636202E0,2.7956655E0,1.8394982E0,2.3578072E0,0E0,0E0,1.4678662E0,3.2086062E-1,0E0,0E0,0E0,2.4999804E0,2.4981997E0,9.228897E-1,0E0,2.4518104E0,3.5449479E0,0E0,1.0944033E0,0E0,2.5130076E0,0E0,0E0,2.3110542E0,0E0,0E0,1.1282381E0,0E0,0E0,0E0,0E0,0E0,0E0,0E0,0E0,0E0,0E0,0E0,0E0,0E0,0E0,0E0,0E0,0E0,0E0,0E0,0E0],"parents":[2147483647,0,0,1,1,2,2,3,3,4,4,5,5,6,6,7,7,8,8,9,9,10,10,11,11,13,13,14,14,15,15,17,17,18,18,19,19,20,20,21,21,22,22,23,23,26,26,27,27,31,31,32,32,33,33,35,35,36,36,38,38,40,40,43,43,46,46],"right_children":[2,4,6,8,10,12,14,16,18,20,22,24,-1,26,28,30,-1,32,34,36,38,40,42,44,-1,-1,46,48,-1,-1,-1,50,52,54,-1,56,58,-1,60,-1,62,-1,-1,64,-1,-1,66,-1,-1,-1,-1,-1,-1,-1,-1,-1,-1,-1,-1,-1,-1,-1,-1,-1,-1,-1,-1],"split_conditions":[3.74E0,6E0,6E0,2E0,1.7E1,7.5E0,9E0,2.01E0,7E0,1.3E1,1.5E0,7.5E0,2.5996193E-1,4.4E0,2.03E0,1E1,-1.1252387E-1,1.5E1,5E0,1.81E0,3.93E0,5E0,2.6E0,2.7E1,-1.1773357E-1,-1.4699411E-1,1.8E1,1.85E0,8.432697E-2,-3.2683823E-2,2.434359E-1,1.9E1,4.1E0,1.5E1,7.717861E-2,7E0,3.41E0,2.7446744E-1,5E0,-1.5502244E-1,3.25E0,-1.9239987E-1,8.38718E-2,8E0,-1.4616731E-1,2.6007771E-1,1.6E1,-2.602495E-3,-1.7456771E-1,-1.3501094E-1,-2.2623938E-2,6.895192E-2,-9.601254E-2,-1.7807093E-1,-2.6460951E-3,1.5276472E-2,2.3333803E-1,2.0511444E-1,-1.4949976E-1,1.3949522E-1,-1.22901194E-1,2.2020145E-1,-9.0793155E-2,1.8122599E-1,1.0101213E-1,1.3314633E-1,-1.2941234E-1],"split_indices":[76,2,3,3,120,57,6,92,3,4,132,69,0,61,48,122,0,1,8,36,34,122,80,131,0,0,0,87,0,0,0,122,56,5,0,2,31,0,8,0,55,0,0,6,0,0,120,0,0,0,0,0,0,0,0,0,0,0,0,0,0,0,0,0,0,0,0],"split_type":[0,0,0,0,0,0,0,0,0,0,0,0,0,0,0,0,0,0,0,0,0,0,0,0,0,0,0,0,0,0,0,0,0,0,0,0,0,0,0,0,0,0,0,0,0,0,0,0,0,0,0,0,0,0,0,0,0,0,0,0,0,0,0,0,0,0,0],"sum_hessian":[3.9978622E2,2.1701541E2,1.8277081E2,1.49609E2,6.740642E1,1.6350923E2,1.9261572E1,8.848655E0,1.4076035E2,4.5347282E1,2.2059134E1,1.4774092E2,1.5768318E1,1.1877565E1,7.384005E0,7.667278E0,1.1813766E0,1.0705331E2,3.370704E1,2.9948248E1,1.5399035E1,1.301718E1,9.041953E0,1.4528929E2,2.451628E0,2.4044416E0,9.4731245E0,6.0279307E0,1.3560746E0,1.7055924E0,5.9616857E0,7.275398E1,3.4299324E1,3.1841385E1,1.8656543E0,1.8694565E1,1.1253683E1,1.0884995E1,4.5140395E0,3.1084476E0,9.908733E0,6.680787E0,2.361166E0,1.4354466E2,1.7446285E0,5.452447E0,4.020677E0,1.2102374E0,4.817693E0,4.099232E1,3.1761662E1,2.2565765E1,1.173356E1,2.8840487E1,3.0008974E0,7.892827E0,1.0801737E1,2.4764144E0,8.777269E0,3.2675252E0,1.2465142E0,7.294922E0,2.613811E0,8.1822845E1,6.172182E1,2.4050548E0,1.6156222E0],"tree_param":{"num_deleted":"0","num_feature":"141","num_nodes":"67","size_leaf_vector":"1"}},{"base_weights":[-4.0376067E-2,1.344081E-1,-3.0534965E-1,3.1142293E-2,4.2532122E-1,-3.7704238E-1,-6.887603E-2,-9.550573E-2,2.0625918E-1,-1.4998418E-1,4.661444E-1,-6.2410994E-3,-4.22515E-1,-3.0694863E-1,2.4483123E-1,-1.8887576E-1,2.968712E-1,2.854216E-1,-1.189569E-1,-1.252516E-1,4.9653444E-1,4.855005E-1,-3.479354E-1,2.5659096E-1,-4.4778275E-1,-3.8240317E-1,9.707233E-2,-1.5004483E-1,5.483939E-1,-2.57595E-1,3.4406036E-1,5.2263194E-1,-1.2960418E-1,4.095939E-1,1.2460472E-2,-4.7440302E-1,2.849645E-1,5.321633E-1,-9.231249E-2,2.2933553E-1,-3.7292317E-2,1.1355072E-1,-1.6430084E-1,2.8826198E-1,-1.1909399E-1,1.86364E-1,-4.763199E-1,-5.0617284E-1,2.3871541E-2,-4.418271E-2,9.6473205E-1,1.4034667E-2,-1.17957614E-1,-1.4680393E-1,1.708304E-1,-1.16766565E-1,1.9846645E-1,-1.5203303E-1,1.3655649E-1,2.1136661E-1,1.4240118E-2,-1.4083283E-1,1.1362258E-1,1.1069713E-2,-1.7343304E-1,-1.1722555E-1,1.6011183E-1,8.664398E-2,1.9337374E-1,2.0120236E-1,-1.2239123E-1,-2.145836E-2,-1.4980106E-1,-1.7065805E-1,6.0794964E-3,1.2882903E-1,-1.2122052E-1,1.8719982E-1,-1.44078E-1,2.9738326E-2,3.3596936E-1],"categories":[],"categories_nodes":[],"categories_segments":[],"categories_sizes":[],"default_left":[0,0,0,0,0,0,1,1,0,0,0,0,0,0,0,0,0,0,0,0,1,0,0,0,0,1,0,0,0,0,0,0,0,0,0,0,0,0,0,0,0,0,0,0,0,0,0,1,0,0,0,0,0,0,0,0,0,0,0,0,0,0,0,0,0,0,0,0,0,0,0,0,0,0,0,0,0,0,0,0,0],"id":9,"left_children":[1,3,5,7,9,11,13,15,17,-1,19,21,23,25,27,29,31,33,35,-1,37,39,41,43,45,47,-1,-1,49,51,53,55,57,59,61,63,65,67,-1,-1,-1,-1,-1,-1,-1,69,71,73,75,77,79,-1,-1,-1,-1,-1,-1,-1,-1,-1,-1,-1,-1,-1,-1,-1,-1,-1,-1,-1,-1,-1,-1,-1,-1,-1,-1,-1,-1,-1,-1],"loss_changes":[1.6100601E1,6.28441E0,2.3157654E0,3.4749022E0,2.3044834E0,1.7807751E0,2.5664864E0,3.39332E0,1.7254262E0,0E0,1.6316528E0,2.2808268E0,1.731329E0,1.0471295E0,3.6549644E0,2.8057973E0,1.7910168E0,1.7958174E0,2.0831375E0,0E0,1.6461325E0,1.0426117E0,1.3678222E0,2.229517E0,1.7389297E0,9.067857E-1,0E0,0E0,2.7806633E0,2.7543917E0,1.9507467E0,1.7651877E0,1.7738857E0,3.864056E0,3.2923083E0,4.2391217E-1,1.3809863E0,1.1790628E0,0E0,0E0,0E0,0E0,0E0,0E0,0E0,1.6107882E0,7.798996E-1,4.630835E-1,1.0603368E0,1.9127405E0,7.7036476E-1,0E0,0E0,0E0,0E0,0E0,0E0,0E0,0E0,0E0,0E0,0E0,0E0,0E0,0E0,0E0,0E0,0E0,0E0,0E0,0E0,0E0,0E0,0E0,0E0,0E0,0E0,0E0,0E0,0E0,0E0],"parents":[2147483647,0,0,1,1,2,2,3,3,4,4,5,5,6,6,7,7,8,8,10,10,11,11,12,12,13,13,14,14,15,15,16,16,17,17,18,18,20,20,21,21,22,22,23,23,24,24,25,25,28,28,29,29,30,30,31,31,32,32,33,33,34,34,35,35,36,36,37,37,45,45,46,46,47,47,48,48,49,49,50,50],"right_children":[2,4,6,8,10,12,14,16,18,-1,20,22,24,26,28,30,32,34,36,-1,38,40,42,44,46,48,-1,-1,50,52,54,56,58,60,62,64,66,68,-1,-1,-1,-1,-1,-1,-1,70,72,74,76,78,80,-1,-1,-1,-1,-1,-1,-1,-1,-1,-1,-1,-1,-1,-1,-1,-1,-1,-1,-1,-1,-1,-1,-1,-1,-1,-1,-1,-1,-1,-1],"split_conditions":[3.57E0,7E0,1E1,3.3E0,5E-1,3E0,1.5E0,3.1E0,6E0,-1.4998418E-1,3.3333334E-1,1.81E0,3.3333334E-1,5E0,1.3E1,5E0,3.3E0,2.01E0,1.95E0,-1.252516E-1,3.26E0,1.92E0,3E0,1.84E0,3.6E0,9.5E0,9.707233E-2,-1.5004483E-1,5.25E0,4E0,2.2E0,5E-1,5E0,1.94E0,2.21E0,2E0,3E0,3E0,-9.231249E-2,2.2933553E-1,-3.7292317E-2,1.1355072E-1,-1.6430084E-1,2.8826198E-1,-1.1909399E-1,1.9E1,1.88E0,3.35E0,9E0,3.8E0,8.333333E-1,1.4034667E-2,-1.17957614E-1,-1.4680393E-1,1.708304E-1,-1.16766565E-1,1.9846645E-1,-1.5203303E-1,1.3655649E-1,2.1136661E-1,1.4240118E-2,-1.4083283E-1,1.1362258E-1,1.1069713E-2,-1.7343304E-1,-1.1722555E-1,1.6011183E-1,8.664398E-2,1.9337374E-1,2.0120236E-1,-1.2239123E-1,-2.145836E-2,-1.4980106E-1,-1.7065805E-1,6.0794964E-3,1.2882903E-1,-1.2122052E-1,1.8719982E-1,-1.44078E-1,2.9738326E-2,3.3596936E-1],"split_indices":[64,3,6,65,135,2,27,29,2,0,133,81,124,9,131,8,70,87,67,0,39,45,6,48,61,61,0,0,14,2,67,136,3,52,39,128,3,6,0,0,0,0,0,0,0,122,49,80,5,13,130,0,0,0,0,0,0,0,0,0,0,0,0,0,0,0,0,0,0,0,0,0,0,0,0,0,0,0,0,0,0],"split_type":[0,0,0,0,0,0,0,0,0,0,0,0,0,0,0,0,0,0,0,0,0,0,0,0,0,0,0,0,0,0,0,0,0,0,0,0,0,0,0,0,0,0,0,0,0,0,0,0,0,0,0,0,0,0,0,0,0,0,0,0,0,0,0,0,0,0,0,0,0,0,0,0,0,0,0,0,0,0,0,0,0],"sum_hessian":[3.4576E2,2.0863268E2,1.3712735E2,1.5479274E2,5.383993E1,1.04769485E2,3.235787E1,9.009143E1,6.470131E1,1.7998222E0,5.204011E1,1.1568963E1,9.320052E1,1.8408892E1,1.3948975E1,7.319305E1,1.6898384E1,5.213358E1,1.2567726E1,1.3067114E0,5.07334E1,4.5705285E0,6.9984345E0,3.0149384E0,9.0185585E1,1.6792816E1,1.6160773E0,3.8508668E0,1.0098107E1,6.52908E1,7.902248E0,1.0901862E1,5.9965224E0,3.5488846E1,1.6644733E1,6.592186E0,5.9755397E0,4.890515E1,1.828248E0,2.9619966E0,1.6085323E0,1.3162324E0,5.6822023E0,1.2248554E0,1.7900829E0,3.6455E0,8.6540085E1,1.2683085E1,4.1097302E0,4.5359464E0,5.562161E0,2.0324036E1,4.4966763E1,1.4327717E0,6.469476E0,1.2031285E0,9.698734E0,3.726473E0,2.2700496E0,1.9037071E1,1.6451777E1,7.066263E0,9.57847E0,1.220249E0,5.371937E0,1.4542086E0,4.521331E0,1.6580965E1,3.2324184E1,1.9379008E0,1.7075992E0,4.8770123E0,8.166307E1,1.12615E1,1.4215846E0,2.1082551E0,2.0014749E0,1.6210876E0,2.9148588E0,1.0946152E0,4.467546E0],"tree_param":{"num_deleted":"0","num_feature":"141","num_nodes":"81","size_leaf_vector":"1"}},{"base_weights":[-1.13107994E-1,1.3594078E-3,-1.8888684E-1,-4.467365E-2,3.8625896E-1,-6.8817556E-2,-2.7296588E-1,1.0244974E-1,-1.6396047E-1,-1.2081762E-1,5.0600916E-1,5.915766E-1,-1.1770758E-1,-8.292624E-2,-3.4953883E-1,-1.9395186E-1,2.9566872E-1,8.827085E-2,-3.422581E-1,6.2776685E-1,-1.0570866E-1,2.7930865E-1,-1.0897503E-1,1.954593E-1,-2.1078618E-1,-4.7014242E-1,1.6766861E-1,-4.653899E-1,-1.4196801E-1,-3.3323523E-1,1.7092116E-1,4.6371832E-1,-2.3075442E-1,-3.679747E-1,4.9101588E-1,-1.8186022E-1,-1.859104E-1,7.5172055E-1,-1.00327246E-1,5.215044E-1,-2.5306413E-1,-2.6106927E-1,4.586652E-1,3.8783118E-2,-5.2864945E-1,3.9710686E-1,-3.2873964E-1,-5.093995E-1,2.1331541E-1,4.5935833E-1,-3.108136E-1,1.11171514E-1,-1.3345377E-1,-1.3777438E-1,1.6372314E-1,-1.3981202E-1,1.2011572E-1,1.1861472E-1,-1.4248371E-1,2.1316518E-1,-4.7116537E-2,2.2996973E-2,-1.4319429E-1,2.6790544E-1,-2.0379517E-2,-1.1302405E-1,2.0544752E-1,-1.3352309E-1,1.5357988E-1,-1.7337514E-2,-1.3827948E-1,-1.04678646E-1,2.4024542E-1,-1.7960197E-1,1.6185993E-2,-3.8507286E-2,2.1700145E-1,1.398209E-1,-1.680828E-1,4.954897E-2,-1.6235977E-1,2.4615233E-1,-1.21013544E-1,-1.12116344E-1,2.2187749E-1,-1.19986124E-1,9.319723E-2],"categories":[],"categories_nodes":[],"categories_segments":[],"categories_sizes":[],"default_left":[0,0,0,0,0,0,0,0,0,0,0,0,0,0,1,0,1,0,0,0,0,0,0,0,0,0,0,0,0,0,0,0,0,0,0,0,0,0,0,0,1,0,1,0,0,0,0,0,0,0,0,0,0,0,0,0,0,0,0,0,0,0,0,0,0,0,0,0,0,0,0,0,0,0,0,0,0,0,0,0,0,0,0,0,0,0,0],"id":10,"left_children":[1,3,5,7,9,11,13,15,17,-1,19,21,23,25,27,29,31,33,35,37,-1,-1,-1,39,41,43,45,47,49,51,-1,53,55,57,59,61,-1,63,-1,65,67,69,71,-1,73,75,77,79,81,83,85,-1,-1,-1,-1,-1,-1,-1,-1,-1,-1,-1,-1,-1,-1,-1,-1,-1,-1,-1,-1,-1,-1,-1,-1,-1,-1,-1,-1,-1,-1,-1,-1,-1,-1,-1,-1],"loss_changes":[2.9545045E0,2.4384694E0,2.050012E0,2.1745708E0,1.5927577E0,2.837784E0,1.7200031E0,3.2454438E0,3.1010702E0,0E0,1.6015093E0,2.3074286E0,2.3923965E0,3.5556052E0,1.9865942E0,2.5908136E0,3.1232731E0,5.522975E0,1.6766896E0,1.6737552E0,0E0,0E0,0E0,2.9104872E0,2.229047E0,5.7127E-1,2.692021E0,1.731905E0,3.3933063E0,1.7139912E0,0E0,2.2324305E0,1.5109351E0,1.3475626E0,2.369567E0,2.0908082E0,0E0,1.31989E0,0E0,1.9199741E0,1.5015303E0,2.3671627E0,1.5893118E0,0E0,5.733297E-1,2.8071108E0,1.6700516E0,1.1904678E0,1.8340741E0,2.0091767E0,1.5420389E0,0E0,0E0,0E0,0E0,0E0,0E0,0E0,0E0,0E0,0E0,0E0,0E0,0E0,0E0,0E0,0E0,0E0,0E0,0E0,0E0,0E0,0E0,0E0,0E0,0E0,0E0,0E0,0E0,0E0,0E0,0E0,0E0,0E0,0E0,0E0,0E0],"parents":[2147483647,0,0,1,1,2,2,3,3,4,4,5,5,6,6,7,7,8,8,10,10,11,11,12,12,13,13,14,14,15,15,16,16,17,17,18,18,19,19,23,23,24,24,25,25,26,26,27,27,28,28,29,29,31,31,32,32,33,33,34,34,35,35,37,37,39,39,40,40,41,41,42,42,44,44,45,45,46,46,47,47,48,48,49,49,50,50],"right_children":[2,4,6,8,10,12,14,16,18,-1,20,22,24,26,28,30,32,34,36,38,-1,-1,-1,40,42,44,46,48,50,52,-1,54,56,58,60,62,-1,64,-1,66,68,70,72,-1,74,76,78,80,82,84,86,-1,-1,-1,-1,-1,-1,-1,-1,-1,-1,-1,-1,-1,-1,-1,-1,-1,-1,-1,-1,-1,-1,-1,-1,-1,-1,-1,-1,-1,-1,-1,-1,-1,-1,-1,-1],"split_conditions":[3.75E0,3.77E0,8E0,2.45E0,4E0,1.93E0,1.2E1,1.2E0,3E0,-1.2081762E-1,4.4E0,1.65E0,1.88E0,8E0,4.5E0,2E0,3.55E0,8E0,1.99E0,1.1E1,-1.0570866E-1,2.7930865E-1,-1.0897503E-1,4.4E0,2.09E0,1.95E0,1.76E0,2.6E0,5E0,2E0,1.7092116E-1,6.666667E-1,1.875E0,7E0,2.02E0,5E0,-1.859104E-1,3.89E0,-1.00327246E-1,1.91E0,6.5E0,1.5E0,1.51E0,3.8783118E-2,2.6E1,4E0,1.88E0,3.6E0,2E0,4.72E0,2.07E0,1.11171514E-1,-1.3345377E-1,-1.3777438E-1,1.6372314E-1,-1.3981202E-1,1.2011572E-1,1.1861472E-1,-1.4248371E-1,2.1316518E-1,-4.7116537E-2,2.2996973E-2,-1.4319429E-1,2.6790544E-1,-2.0379517E-2,-1.1302405E-1,2.0544752E-1,-1.3352309E-1,1.5357988E-1,-1.7337514E-2,-1.3827948E-1,-1.04678646E-1,2.4024542E-1,-1.7960197E-1,1.6185993E-2,-3.8507286E-2,2.1700145E-1,1.398209E-1,-1.680828E-1,4.954897E-2,-1.6235977E-1,2.4615233E-1,-1.21013544E-1,-1.12116344E-1,2.2187749E-1,-1.19986124E-1,9.319723E-2],"split_indices":[63,22,120,74,137,106,0,126,125,0,65,12,47,0,28,135,19,121,88,6,0,0,0,69,87,105,79,129,54,131,0,138,130,0,47,6,0,72,0,90,19,132,56,0,1,6,45,16,8,34,88,0,0,0,0,0,0,0,0,0,0,0,0,0,0,0,0,0,0,0,0,0,0,0,0,0,0,0,0,0,0,0,0,0,0,0,0],"split_type":[0,0,0,0,0,0,0,0,0,0,0,0,0,0,0,0,0,0,0,0,0,0,0,0,0,0,0,0,0,0,0,0,0,0,0,0,0,0,0,0,0,0,0,0,0,0,0,0,0,0,0,0,0,0,0,0,0,0,0,0,0,0,0,0,0,0,0,0,0,0,0,0,0,0,0,0,0,0,0,0,0,0,0,0,0,0,0],"sum_hessian":[3.395784E2,1.3565198E2,2.0392642E2,1.21950874E2,1.37010975E1,8.473661E1,1.1918982E2,5.4667458E1,6.728342E1,1.4940935E0,1.2207004E1,5.0756645E0,7.966094E1,3.4830364E1,8.435945E1,2.1571922E1,3.3095535E1,2.8073606E1,3.920981E1,1.0925854E1,1.2811496E0,3.7628505E0,1.3128142E0,1.7999826E1,6.1661118E1,1.33405695E1,2.1489796E1,5.3344383E1,3.1015068E1,1.8721165E1,2.8507588E0,2.5177317E1,7.918218E0,1.3203028E1,1.487058E1,2.5894783E1,1.3315027E1,9.872745E0,1.0531096E0,1.0328798E1,7.671027E0,5.792067E1,3.740448E0,1.0787636E0,1.2261806E1,1.4833733E1,6.6560626E0,5.0330254E1,3.0141325E0,6.4222603E0,2.4592808E1,2.2448869E0,1.6476278E1,1.6795747E0,2.3497742E1,5.9585085E0,1.9597095E0,1.2913861E0,1.1911641E1,1.1035788E1,3.834792E0,1.4205649E1,1.1689133E1,8.344714E0,1.5280297E0,1.3880172E0,8.940782E0,6.4662166E0,1.2048109E0,2.9354115E1,2.8566555E1,1.1072254E0,2.6332226E0,1.0921547E1,1.3402588E0,5.914202E0,8.91953E0,1.2730476E0,5.383015E0,2.0770159E0,4.8253235E1,1.3522363E0,1.6618962E0,1.5325822E0,4.889678E0,2.1819576E1,2.773231E0],"tree_param":{"num_deleted":"0","num_feature":"141","num_nodes":"87","size_leaf_vector":"1"}},{"base_weights":[1.3702613E-1,-5.5664957E-2,3.594945E-1,-1.8402854E-1,2.2079176E-1,2.8209925E-1,5.322491E-1,4.6023574E-2,-2.966202E-1,3.4999022E-1,-5.1306892E-2,3.588384E-1,-2.0038243E-1,2.615085E-1,6.922019E-1,-5.2027553E-1,1.6883078E-1,3.6159292E-2,-3.850832E-1,4.4233602E-1,-8.258383E-2,1.7872104E-1,-3.7392738E-1,4.5512745E-1,1.2783864E-1,2.2412233E-1,-6.1382574E-1,4.263855E-1,-2.7864993E-1,7.148048E-1,7.897604E-3,-1.807989E-1,8.595326E-3,3.020447E-1,-2.781402E-1,-2.543885E-1,7.437626E-1,-4.556565E-1,-1.5032895E-1,5.6240785E-1,4.0031616E-2,-3.7004685E-1,1.7969614E-1,3.9584473E-1,-1.5157592E-1,-1.8094406E-1,6.8728134E-2,5.1710945E-1,-1.2917754E-1,3.1145483E-1,-3.2409263E-1,-1.1502017E-1,4.7882485E-1,7.683833E-2,-2.364166E-1,5.798164E-1,-2.6775822E-1,-1.8378772E-1,4.3894347E-2,7.569013E-1,3.0498064E-1,1.4385839E-1,-6.6974625E-2,-1.6977528E-1,3.2052677E-2,2.6001316E-1,-1.4139162E-1,2.737582E-1,4.2518303E-3,-1.4417028E-1,2.0664215E-2,-1.3041854E-1,1.3035199E-1,1.8436518E-1,-5.9146468E-2,-1.6036265E-1,1.0532955E-1,1.0134303E-1,-1.8378027E-1,-9.183588E-3,2.2820044E-1,4.445733E-2,1.7664786E-1,1.5169947E-1,-2.0848025E-1,1.289294E-1,-1.3184363E-1,1.2672028E-1,-1.8556675E-1,1.9727609E-1,-3.097413E-3,1.9980378E-1,-3.9182935E-2,6.4603806E-2,-1.8523145E-1,2.340064E-1,4.6661593E-2,-5.123001E-2,1.6593093E-1],"categories":[],"categories_nodes":[],"categories_segments":[],"categories_sizes":[],"default_left":[0,0,0,0,0,0,0,0,0,1,0,0,0,0,0,0,0,0,0,1,0,0,0,0,0,1,0,0,0,1,0,0,0,0,1,0,0,1,0,0,0,0,0,1,0,0,0,0,0,0,0,0,0,0,0,0,1,0,0,0,0,0,0,0,0,0,0,0,0,0,0,0,0,0,0,0,0,0,0,0,0,0,0,0,0,0,0,0,0,0,0,0,0,0,0,0,0,0,0],"id":11,"left_children":[1,3,5,7,9,11,13,15,17,19,21,23,25,27,29,31,33,35,37,39,41,43,45,47,49,51,53,55,57,59,-1,-1,-1,61,63,65,67,69,71,73,75,77,-1,79,-1,-1,-1,81,83,85,87,-1,89,-1,-1,91,93,-1,-1,95,97,-1,-1,-1,-1,-1,-1,-1,-1,-1,-1,-1,-1,-1,-1,-1,-1,-1,-1,-1,-1,-1,-1,-1,-1,-1,-1,-1,-1,-1,-1,-1,-1,-1,-1,-1,-1,-1,-1],"loss_changes":[1.645145E1,7.3603606E0,2.2303276E0,3.676355E0,2.3332045E0,4.70315E0,2.1556435E0,3.3795297E0,2.812807E0,1.8254609E0,1.7050914E0,2.3501997E0,3.2627268E0,2.0466065E0,4.8254204E-1,4.0981865E-1,2.4449613E0,4.4820595E0,1.1772814E0,1.7677889E0,1.9303491E0,2.214302E0,1.4529445E0,2.8203783E0,2.859754E0,1.6563964E0,1.6096601E0,1.9635932E0,8.939196E-1,3.2432175E-1,0E0,0E0,0E0,2.999686E0,1.1267868E0,4.18942E0,7.668245E-1,7.82115E-1,3.3279507E0,1.2485981E0,1.9027121E0,1.3662393E0,0E0,1.7123009E0,0E0,0E0,0E0,1.7367115E0,3.2577353E0,2.3345E0,2.4803452E0,0E0,6.320946E-1,0E0,0E0,9.5785666E-1,7.677632E-1,0E0,0E0,2.750244E-1,6.459949E-1,0E0,0E0,0E0,0E0,0E0,0E0,0E0,0E0,0E0,0E0,0E0,0E0,0E0,0E0,0E0,0E0,0E0,0E0,0E0,0E0,0E0,0E0,0E0,0E0,0E0,0E0,0E0,0E0,0E0,0E0,0E0,0E0,0E0,0E0,0E0,0E0,0E0,0E0],"parents":[2147483647,0,0,1,1,2,2,3,3,4,4,5,5,6,6,7,7,8,8,9,9,10,10,11,11,12,12,13,13,14,14,15,15,16,16,17,17,18,18,19,19,20,20,21,21,22,22,23,23,24,24,25,25,26,26,27,27,28,28,29,29,33,33,34,34,35,35,36,36,37,37,38,38,39,39,40,40,41,41,43,43,47,47,48,48,49,49,50,50,52,52,55,55,56,56,59,59,60,60],"right_children":[2,4,6,8,10,12,14,16,18,20,22,24,26,28,30,32,34,36,38,40,42,44,46,48,50,52,54,56,58,60,-1,-1,-1,62,64,66,68,70,72,74,76,78,-1,80,-1,-1,-1,82,84,86,88,-1,90,-1,-1,92,94,-1,-1,96,98,-1,-1,-1,-1,-1,-1,-1,-1,-1,-1,-1,-1,-1,-1,-1,-1,-1,-1,-1,-1,-1,-1,-1,-1,-1,-1,-1,-1,-1,-1,-1,-1,-1,-1,-1,-1,-1,-1],"split_conditions":[3.74E0,6E0,8E0,4E0,1.7E1,2.1E1,1.5E0,3E0,3.4E0,3.4E0,1.5E0,3E0,1.7142857E0,1.4285715E0,7E0,2.06E0,1.7142857E0,2.3E1,2.6666667E0,3E0,2.08E0,2.01E0,2.6E0,2.2E0,9E0,5.25E0,1.4E0,2.9E1,2E0,6.25E0,7.897604E-3,-1.807989E-1,8.595326E-3,2.3333333E0,3E0,1.87E0,3.47E0,2.08E0,1.2E1,1.8E1,9E0,1.74E0,1.7969614E-1,2.45E0,-1.5157592E-1,-1.8094406E-1,6.8728134E-2,6E0,1.2E1,8E0,1E1,-1.1502017E-1,2.2E1,7.683833E-2,-2.364166E-1,1.98E0,1.33E0,-1.8378772E-1,4.3894347E-2,1.15E1,7.25E0,1.4385839E-1,-6.6974625E-2,-1.6977528E-1,3.2052677E-2,2.6001316E-1,-1.4139162E-1,2.737582E-1,4.2518303E-3,-1.4417028E-1,2.0664215E-2,-1.3041854E-1,1.3035199E-1,1.8436518E-1,-5.9146468E-2,-1.6036265E-1,1.0532955E-1,1.0134303E-1,-1.8378027E-1,-9.183588E-3,2.2820044E-1,4.445733E-2,1.7664786E-1,1.5169947E-1,-2.0848025E-1,1.289294E-1,-1.3184363E-1,1.2672028E-1,-1.8556675E-1,1.9727609E-1,-3.097413E-3,1.9980378E-1,-3.9182935E-2,6.4603806E-2,-1.8523145E-1,2.340064E-1,4.6661593E-2,-5.123001E-2,1.6593093E-1],"split_indices":[76,2,2,3,120,0,136,7,57,18,132,8,139,130,3,86,139,122,132,29,90,87,80,81,6,29,36,0,129,19,0,0,0,132,29,38,22,106,5,5,5,35,0,18,0,0,0,122,131,55,4,0,131,0,0,77,18,0,0,16,57,0,0,0,0,0,0,0,0,0,0,0,0,0,0,0,0,0,0,0,0,0,0,0,0,0,0,0,0,0,0,0,0,0,0,0,0,0,0],"split_type":[0,0,0,0,0,0,0,0,0,0,0,0,0,0,0,0,0,0,0,0,0,0,0,0,0,0,0,0,0,0,0,0,0,0,0,0,0,0,0,0,0,0,0,0,0,0,0,0,0,0,0,0,0,0,0,0,0,0,0,0,0,0,0,0,0,0,0,0,0,0,0,0,0,0,0,0,0,0,0,0,0,0,0,0,0,0,0,0,0,0,0,0,0,0,0,0,0,0,0],"sum_hessian":[3.8230603E2,2.0526524E2,1.7704079E2,1.4040646E2,6.485879E1,1.2408346E2,5.2957333E1,4.6331398E1,9.4075066E1,4.3783264E1,2.1075523E1,1.0727719E2,1.6806273E1,2.0646093E1,3.231124E1,7.6800356E0,3.865136E1,1.9880396E1,7.419467E1,3.6062153E1,7.7211084E0,1.2563675E1,8.511848E0,7.503121E1,3.2245975E1,8.518143E0,8.288129E0,1.5979245E1,4.6668477E0,3.117939E1,1.1318501E0,6.592661E0,1.0873744E0,3.0026571E1,8.624789E0,1.4547546E1,5.3328505E0,5.6321846E1,1.787282E1,2.7466524E1,8.59563E0,5.7521276E0,1.9689807E0,9.8561535E0,2.707522E0,6.1673255E0,2.3445225E0,6.793933E1,7.091883E0,2.3150814E1,9.0951605E0,2.3670082E0,6.151135E0,1.3045025E0,6.9836264E0,1.3221515E1,2.757731E0,2.3659081E0,2.3009396E0,2.7507019E1,3.6723707E0,2.250861E1,7.5179605E0,4.6665354E0,3.958254E0,1.8727839E0,1.2674762E1,4.127386E0,1.205464E0,5.384833E1,2.4735155E0,1.2197815E1,5.675006E0,2.5880768E1,1.5857564E0,2.7667432E0,5.828886E0,1.367772E0,4.3843555E0,4.9665937E0,4.8895593E0,1.1556708E1,5.638262E1,3.3919497E0,3.6999338E0,2.0369312E1,2.7815003E0,2.449912E0,6.6452484E0,4.25264E0,1.898495E0,1.1846672E1,1.3748423E0,1.3192579E0,1.4384731E0,2.6202545E1,1.3044734E0,1.3656509E0,2.3067198E0],"tree_param":{"num_deleted":"0","num_feature":"141","num_nodes":"99","size_leaf_vector":"1"}},{"base_weights":[-3.693719E-2,1.11942954E-1,-2.4965481E-1,4.500026E-2,4.1591173E-1,-3.4362367E-1,-2.966289E-2,-4.8649088E-3,3.649263E-1,4.6329725E-1,-7.457583E-2,-4.5354748E-1,-1.8728916E-1,-2.77779E-1,1.8998346E-1,1.0607844E-1,-2.2917567E-1,4.9630076E-1,-3.2301992E-1,-1.0195724E-1,5.017955E-1,-4.8429134E-1,2.0457134E-1,-3.142416E-1,2.086161E-1,9.352936E-2,-5.017731E-1,-1.1815415E-1,4.2718259E-1,-1.9925787E-1,1.971681E-1,-4.3514106E-1,7.680189E-2,1.0709533E-2,6.938684E-1,-1.7585477E-1,1.9643117E-2,-4.6380594E-2,5.3621936E-1,-5.279442E-1,-2.5423087E-2,-9.12487E-2,1.8394674E-1,1.6176884E-1,-4.7551373E-1,5.806483E-1,-2.4098653E-1,2.975124E-1,-1.2183211E-1,2.0464437E-2,-1.68286E-1,3.1693986E-1,-1.5075596E-1,-2.2391477E-1,6.264194E-1,8.571606E-2,-1.3004047E-1,7.1409844E-2,-1.4267242E-1,-1.5225326E-1,1.5188651E-1,1.7704348E-1,-2.4957037E-2,1.0727676E-1,-1.6894814E-1,5.623992E-2,2.2198878E-1,1.801706E-1,2.1318594E-2,-1.6426648E-1,2.529828E-2,1.3118719E-1,-1.2596846E-1,-8.844382E-2,1.7023943E-1,-1.6258682E-1,1.878327E-2,-1.0278031E-1,2.7302596E-1,8.363882E-2,-1.3636185E-1,1.8215333E-1,8.019709E-3,-1.0909014E-1,1.8606591E-1,4.415755E-2,-1.2489517E-1,2.2305962E-1,-3.543977E-2],"categories":[],"categories_nodes":[],"categories_segments":[],"categories_sizes":[],"default_left":[0,0,0,0,0,0,0,0,0,0,0,1,0,0,0,0,0,0,0,0,0,0,0,0,0,0,0,0,1,0,0,1,0,0,0,0,0,0,0,0,0,0,0,0,0,0,0,0,0,0,0,0,0,0,0,0,0,0,0,0,0,0,0,0,0,0,0,0,0,0,0,0,0,0,0,0,0,0,0,0,0,0,0,0,0,0,0,0,0],"id":12,"left_children":[1,3,5,7,9,11,13,15,17,19,-1,21,23,25,27,29,31,33,35,-1,37,39,41,43,45,47,49,51,53,55,57,59,61,63,65,-1,-1,-1,67,69,71,-1,-1,73,75,77,79,81,-1,-1,-1,83,-1,85,87,-1,-1,-1,-1,-1,-1,-1,-1,-1,-1,-1,-1,-1,-1,-1,-1,-1,-1,-1,-1,-1,-1,-1,-1,-1,-1,-1,-1,-1,-1,-1,-1,-1,-1],"loss_changes":[1.0222487E1,3.8486729E0,2.7360725E0,2.5044634E0,1.191433E0,1.5130987E0,2.279322E0,3.4264376E0,2.0734062E0,1.1678529E0,0E0,1.1895695E0,2.0807514E0,1.6763076E0,1.6778245E0,2.6023324E0,2.9044445E0,1.7355242E0,4.473196E-1,0E0,7.8750515E-1,1.0239449E0,8.326199E-1,2.4381576E0,1.868822E0,9.5799893E-1,4.5574713E-1,1.9098395E0,1.8003662E0,2.585504E0,2.078314E0,2.122263E0,1.624234E0,1.4494543E0,1.6234827E-1,0E0,0E0,0E0,8.5089874E-1,6.1337566E-1,1.1965193E0,0E0,0E0,1.7473243E0,8.6444664E-1,2.121296E0,7.246711E-1,5.212615E-1,0E0,0E0,0E0,1.3655226E0,0E0,3.2797432E-1,9.652221E-1,0E0,0E0,0E0,0E0,0E0,0E0,0E0,0E0,0E0,0E0,0E0,0E0,0E0,0E0,0E0,0E0,0E0,0E0,0E0,0E0,0E0,0E0,0E0,0E0,0E0,0E0,0E0,0E0,0E0,0E0,0E0,0E0,0E0,0E0],"parents":[2147483647,0,0,1,1,2,2,3,3,4,4,5,5,6,6,7,7,8,8,9,9,11,11,12,12,13,13,14,14,15,15,16,16,17,17,18,18,20,20,21,21,22,22,23,23,24,24,25,25,26,26,27,27,28,28,29,29,30,30,31,31,32,32,33,33,34,34,38,38,39,39,40,40,43,43,44,44,45,45,46,46,47,47,51,51,53,53,54,54],"right_children":[2,4,6,8,10,12,14,16,18,20,-1,22,24,26,28,30,32,34,36,-1,38,40,42,44,46,48,50,52,54,56,58,60,62,64,66,-1,-1,-1,68,70,72,-1,-1,74,76,78,80,82,-1,-1,-1,84,-1,86,88,-1,-1,-1,-1,-1,-1,-1,-1,-1,-1,-1,-1,-1,-1,-1,-1,-1,-1,-1,-1,-1,-1,-1,-1,-1,-1,-1,-1,-1,-1,-1,-1,-1,-1],"split_conditions":[3.25E0,8E0,5E0,6E0,5E0,1.74E0,1.96E0,1.5E1,1E1,7E0,-7.457583E-2,6.86E0,2.13E0,1E1,7E0,3E0,2E0,1.99E0,9E0,-1.0195724E-1,6.666667E-1,2.14E0,2E0,6E0,1.3E1,2.2E0,3.65E0,4.5E0,1.35E0,4E0,8E0,1.97E0,1.74E0,1.94E0,4E0,-1.7585477E-1,1.9643117E-2,-4.6380594E-2,3E0,3E1,5.75E0,-9.12487E-2,1.8394674E-1,3.83E0,2.3E1,1.73E0,4E0,1.45E0,-1.2183211E-1,2.0464437E-2,-1.68286E-1,9E0,-1.5075596E-1,1.25E0,1.75E0,8.571606E-2,-1.3004047E-1,7.1409844E-2,-1.4267242E-1,-1.5225326E-1,1.5188651E-1,1.7704348E-1,-2.4957037E-2,1.0727676E-1,-1.6894814E-1,5.623992E-2,2.2198878E-1,1.801706E-1,2.1318594E-2,-1.6426648E-1,2.529828E-2,1.3118719E-1,-1.2596846E-1,-8.844382E-2,1.7023943E-1,-1.6258682E-1,1.878327E-2,-1.0278031E-1,2.7302596E-1,8.363882E-2,-1.3636185E-1,1.8215333E-1,8.019709E-3,-1.0909014E-1,1.8606591E-1,4.415755E-2,-1.2489517E-1,2.2305962E-1,-3.543977E-2],"split_indices":[55,3,3,56,8,42,87,1,15,140,0,98,41,5,6,3,45,91,4,0,135,90,7,121,122,126,61,70,56,2,2,103,81,91,3,0,0,0,124,0,20,0,0,22,0,36,2,40,0,0,0,4,0,12,138,0,0,0,0,0,0,0,0,0,0,0,0,0,0,0,0,0,0,0,0,0,0,0,0,0,0,0,0,0,0,0,0,0,0],"split_type":[0,0,0,0,0,0,0,0,0,0,0,0,0,0,0,0,0,0,0,0,0,0,0,0,0,0,0,0,0,0,0,0,0,0,0,0,0,0,0,0,0,0,0,0,0,0,0,0,0,0,0,0,0,0,0,0,0,0,0,0,0,0,0,0,0,0,0,0,0,0,0,0,0,0,0,0,0,0,0,0,0,0,0,0,0,0,0,0,0],"sum_hessian":[3.209048E2,1.890578E2,1.3184698E2,1.5587718E2,3.318061E1,9.1991234E1,3.985575E1,1.3570964E2,2.0167543E1,3.1254623E1,1.9259895E0,5.2896717E1,3.9094513E1,1.8590712E1,2.126504E1,9.115285E1,4.4556797E1,1.7167675E1,2.9998682E0,1.0715685E0,3.0183054E1,5.0788284E1,2.1084335E0,2.975836E1,9.336153E0,7.2142735E0,1.1376438E1,9.467716E0,1.1797322E1,2.067199E1,7.048086E1,2.6378363E1,1.8178434E1,5.269718E0,1.1897957E1,1.4850607E0,1.5148075E0,1.330069E0,2.8852985E1,4.6238964E1,4.54932E0,1.0529556E0,1.0554779E0,7.5299377E0,2.2228422E1,4.949295E0,4.386858E0,5.4100795E0,1.8041935E0,1.0557197E0,1.0320719E1,4.523092E0,4.944625E0,2.73514E0,9.062182E0,6.6604013E0,1.4011588E1,6.705395E1,3.4269114E0,2.4923363E1,1.4549997E0,3.680562E0,1.4497872E1,3.5193214E0,1.7503967E0,1.4153711E0,1.0482586E1,2.5090841E1,3.7621439E0,4.490634E1,1.3326242E0,2.043618E0,2.5057025E0,3.67138E0,3.858558E0,1.9779167E1,2.449256E0,1.2910832E0,3.658212E0,1.1885195E0,3.1983385E0,1.9442725E0,3.4658072E0,1.3329309E0,3.190161E0,1.0141068E0,1.7210335E0,7.8316846E0,1.2304977E0],"tree_param":{"num_deleted":"0","num_feature":"141","num_nodes":"89","size_leaf_vector":"1"}},{"base_weights":[-8.781406E-2,-6.1943304E-2,-3.4619975E-1,-7.196798E-2,5.966746E-1,-4.4815463E-1,4.2179975E-1,-3.7072312E-2,-3.1015044E-1,1.6577562E-2,2.2140013E-1,-5.376156E-1,1.1919326E-2,2.3684226E-1,-9.551855E-2,2.7623498E-1,-4.5587674E-2,-4.2083144E-1,3.6489424E-1,-1.733728E-1,3.5434112E-2,1.675968E-1,-1.3084285E-1,3.8606718E-1,-6.514024E-2,-4.612091E-1,9.9963866E-2,2.3406975E-1,-1.8325858E-1,1.7566463E-1,-6.555529E-2,-1.11159354E-1,-1.03761805E-2,3.0591188E-2,-1.5184493E-1,2.8623624E-2,-1.05026014E-1],"categories":[],"categories_nodes":[],"categories_segments":[],"categories_sizes":[],"default_left":[1,0,0,0,0,0,0,0,0,0,0,0,0,0,0,0,0,0,0,0,0,0,0,0,0,0,0,0,0,0,0,0,0,0,0,0,0],"id":13,"left_children":[1,3,5,7,9,11,13,15,17,-1,-1,19,21,-1,-1,-1,23,25,27,-1,-1,-1,-1,29,31,33,-1,-1,35,-1,-1,-1,-1,-1,-1,-1,-1],"loss_changes":[2.1067255E0,1.9616758E0,2.4407701E0,2.375123E0,3.0083525E-1,1.0712647E0,1.3087754E0,2.0940504E0,2.8849418E0,0E0,0E0,6.4113283E-1,1.515086E0,0E0,0E0,0E0,2.137872E0,1.1240807E0,1.4373413E0,0E0,0E0,0E0,0E0,1.4536116E0,2.2296264E0,8.279052E-1,0E0,0E0,1.8498716E-1,0E0,0E0,0E0,0E0,0E0,0E0,0E0,0E0],"parents":[2147483647,0,0,1,1,2,2,3,3,4,4,5,5,6,6,7,7,8,8,11,11,12,12,16,16,17,17,18,18,23,23,24,24,25,25,28,28],"right_children":[2,4,6,8,10,12,14,16,18,-1,-1,20,22,-1,-1,-1,24,26,28,-1,-1,-1,-1,30,32,34,-1,-1,36,-1,-1,-1,-1,-1,-1,-1,-1],"split_conditions":[9E0,3.1E1,2E0,8E0,6E0,2.04E0,7.25E0,1.3E0,2.9E0,1.6577562E-2,2.2140013E-1,2.1E0,2E0,2.3684226E-1,-9.551855E-2,2.7623498E-1,3.3333334E-1,6E0,6E0,-1.733728E-1,3.5434112E-2,1.675968E-1,-1.3084285E-1,2.2E1,1.55E0,1.73E0,9.9963866E-2,2.3406975E-1,1.92E0,1.7566463E-1,-6.555529E-2,-1.11159354E-1,-1.03761805E-2,3.0591188E-2,-1.5184493E-1,2.8623624E-2,-1.05026014E-1],"split_indices":[17,0,127,2,1,86,57,56,15,0,0,49,120,0,0,0,133,8,6,0,0,0,0,122,26,78,0,0,45,0,0,0,0,0,0,0,0],"split_type":[0,0,0,0,0,0,0,0,0,0,0,0,0,0,0,0,0,0,0,0,0,0,0,0,0,0,0,0,0,0,0,0,0,0,0,0,0],"sum_hessian":[3.1736752E2,2.8961017E2,2.7757366E1,2.8614554E2,3.4646306E0,2.487198E1,2.8853862E0,2.50588E2,3.555754E1,1.0051032E0,2.4595273E0,2.0681868E1,4.1901126E0,1.8833169E0,1.0020694E0,1.2640901E0,2.493239E2,3.0872278E1,4.6852627E0,1.959637E1,1.0854961E0,1.7760749E0,2.414038E0,9.991873E0,2.3933203E2,2.9671764E1,1.200514E0,2.4246829E0,2.2605796E0,7.536654E0,2.4552188E0,2.0754436E1,2.1857759E2,2.0989902E0,2.7572773E1,1.0068362E0,1.2537435E0],"tree_param":{"num_deleted":"0","num_feature":"141","num_nodes":"37","size_leaf_vector":"1"}},{"base_weights":[1.1068491E-1,-4.6573855E-2,2.9194477E-1,-1.5558378E-1,1.8466382E-1,2.5603768E-1,1.9344296E-1,3.7052348E-1,-1.9227965E-1,2.9416817E-1,-4.9639527E-2,3.6023855E-1,1.1966556E-1,5.902977E-1,-1.0200202E-1,-3.5146683E-1,-8.108874E-2,1.2024786E-2,4.1816726E-1,4.8897997E-1,-1.8105729E-1,4.130352E-1,-3.84946E-2,2.8868264E-1,-4.7013573E-2,1.9332787E-1,5.6380868E-2,-1.1965907E-1,8.3811074E-2,-5.412998E-1,-1.4638369E-1,-2.8746533E-1,7.3793836E-2,-2.6714402E-1,3.1083593E-1,5.676007E-1,2.7253477E-2,1.8232982E-1,3.996582E-2,6.4349964E-2,-4.7024667E-1,-1.235927E-1,4.442528E-1,2.6660368E-1,-1.8606536E-1,5.602952E-1,9.676042E-2,5.0515515E-1,-2.0681784E-1,-1.7182772E-1,2.4385514E-2,2.4848094E-2,-1.4583077E-1,9.08069E-2,-1.1071191E-1,5.0016597E-2,-1.3208982E-1,-1.4380722E-1,6.4618655E-2,-3.3998642E-2,1.6806576E-1,-4.786076E-2,1.8700734E-1,-1.4547746E-1,8.5948244E-2,9.1766655E-2,-1.0636951E-1,-1.6803803E-1,2.4657521E-2,1.4758849E-1,-6.525362E-4,1.5156174E-1,-1.4956783E-1,2.0331785E-1,-2.7812872E-2,-5.5108663E-2,1.3223001E-1,-1.5399297E-2,1.9879884E-1,6.570488E-2,-1.3631044E-1],"categories":[],"categories_nodes":[],"categories_segments":[],"categories_sizes":[],"default_left":[0,0,1,0,0,0,0,0,0,0,0,0,0,0,0,0,1,0,1,0,0,0,0,0,0,0,0,0,0,0,0,0,0,0,0,0,0,0,0,0,0,0,1,0,0,0,1,0,1,0,0,0,0,0,0,0,0,0,0,0,0,0,0,0,0,0,0,0,0,0,0,0,0,0,0,0,0,0,0,0,0],"id":14,"left_children":[1,3,5,7,9,11,-1,13,15,17,19,21,23,25,27,29,31,33,35,37,39,41,43,45,47,-1,-1,-1,-1,49,51,53,55,57,59,61,63,-1,-1,65,67,-1,69,71,-1,73,75,77,79,-1,-1,-1,-1,-1,-1,-1,-1,-1,-1,-1,-1,-1,-1,-1,-1,-1,-1,-1,-1,-1,-1,-1,-1,-1,-1,-1,-1,-1,-1,-1,-1],"loss_changes":[1.0275506E1,4.9095645E0,1.955658E0,2.622252E0,1.6179945E0,2.1392555E0,0E0,9.9040246E-1,2.1694822E0,1.490005E0,1.5580028E0,1.8381548E0,1.9297441E0,1.5249014E-2,5.298902E-1,1.8972235E0,2.3996978E0,1.257271E0,1.7169361E0,1.02522254E-1,1.2663947E0,2.1538963E0,2.1240768E0,1.7135723E0,3.2021646E0,0E0,0E0,0E0,0E0,5.5566263E-1,2.0472298E0,1.6573591E0,2.1422265E0,9.0353537E-1,8.3157533E-1,9.6725273E-1,1.3673823E0,0E0,0E0,1.1508396E0,4.490273E-1,0E0,1.5817547E0,1.701237E0,0E0,1.1235285E0,2.1147223E0,7.501273E-1,3.0443602E0,0E0,0E0,0E0,0E0,0E0,0E0,0E0,0E0,0E0,0E0,0E0,0E0,0E0,0E0,0E0,0E0,0E0,0E0,0E0,0E0,0E0,0E0,0E0,0E0,0E0,0E0,0E0,0E0,0E0,0E0,0E0,0E0],"parents":[2147483647,0,0,1,1,2,2,3,3,4,4,5,5,7,7,8,8,9,9,10,10,11,11,12,12,13,13,14,14,15,15,16,16,17,17,18,18,19,19,20,20,21,21,22,22,23,23,24,24,29,29,30,30,31,31,32,32,33,33,34,34,35,35,36,36,39,39,40,40,42,42,43,43,45,45,46,46,47,47,48,48],"right_children":[2,4,6,8,10,12,-1,14,16,18,20,22,24,26,28,30,32,34,36,38,40,42,44,46,48,-1,-1,-1,-1,50,52,54,56,58,60,62,64,-1,-1,66,68,-1,70,72,-1,74,76,78,80,-1,-1,-1,-1,-1,-1,-1,-1,-1,-1,-1,-1,-1,-1,-1,-1,-1,-1,-1,-1,-1,-1,-1,-1,-1,-1,-1,-1,-1,-1,-1,-1],"split_conditions":[3.74E0,6E0,7.5E0,2E0,1.7E1,8E0,1.9344296E-1,1.98E0,2E0,2.25E0,4E0,2.17E0,1.96E0,1.7E0,1.2E1,4E0,3.3E0,1.98E0,3E0,3E0,3.05E0,2E0,1.3E1,5E0,3.8E0,1.9332787E-1,5.6380868E-2,-1.1965907E-1,8.3811074E-2,2.1E0,3.25E0,5E-1,3.1E0,4E0,3.9E0,1E0,9E0,1.8232982E-1,3.996582E-2,2.02E0,3.4E0,-1.235927E-1,5.4E0,3.6E0,-1.8606536E-1,2.1E0,6.75E0,2E0,1.3E0,-1.7182772E-1,2.4385514E-2,2.4848094E-2,-1.4583077E-1,9.08069E-2,-1.1071191E-1,5.0016597E-2,-1.3208982E-1,-1.4380722E-1,6.4618655E-2,-3.3998642E-2,1.6806576E-1,-4.786076E-2,1.8700734E-1,-1.4547746E-1,8.5948244E-2,9.1766655E-2,-1.0636951E-1,-1.6803803E-1,2.4657521E-2,1.4758849E-1,-6.525362E-4,1.5156174E-1,-1.4956783E-1,2.0331785E-1,-2.7812872E-2,-5.5108663E-2,1.3223001E-1,-1.5399297E-2,1.9879884E-1,6.570488E-2,-1.3631044E-1],"split_indices":[76,2,57,3,120,6,0,80,8,64,137,81,87,139,120,2,60,49,29,125,20,131,131,125,25,0,0,0,0,86,53,133,17,66,16,130,5,0,0,87,26,0,102,66,0,47,58,3,68,0,0,0,0,0,0,0,0,0,0,0,0,0,0,0,0,0,0,0,0,0,0,0,0,0,0,0,0,0,0,0,0],"split_type":[0,0,0,0,0,0,0,0,0,0,0,0,0,0,0,0,0,0,0,0,0,0,0,0,0,0,0,0,0,0,0,0,0,0,0,0,0,0,0,0,0,0,0,0,0,0,0,0,0,0,0,0,0,0,0,0,0,0,0,0,0,0,0,0,0,0,0,0,0,0,0,0,0,0,0,0,0,0,0,0,0],"sum_hessian":[3.5900757E2,1.9262854E2,1.6637903E2,1.3113577E2,6.149278E1,1.5257843E2,1.3800594E1,7.9571543E0,1.2317861E2,4.1732918E1,1.9759861E1,8.556062E1,6.701781E1,5.2609963E0,2.6961582E0,4.9767586E1,7.3411026E1,1.3076367E1,2.8656551E1,3.3419552E0,1.6417906E1,7.552448E1,1.00361395E1,3.2912098E1,3.410571E1,4.106897E0,1.1540993E0,1.4902658E0,1.2058923E0,2.499335E1,2.4774237E1,3.1106493E1,4.230453E1,6.8151693E0,6.261198E0,2.0404573E1,8.251979E0,1.9743696E0,1.3675855E0,9.301823E0,7.116082E0,2.3088858E0,7.32156E1,6.9386854E0,3.097454E0,1.283224E1,2.0079859E1,7.1700573E0,2.6935654E1,2.3867363E1,1.1259875E0,1.5244713E1,9.529523E0,3.4483776E0,2.7658115E1,3.640044E1,5.904093E0,4.738045E0,2.077124E0,2.520225E0,3.740973E0,1.3206395E0,1.9083935E1,2.480577E0,5.7714014E0,6.071127E0,3.230696E0,6.1083546E0,1.0077279E0,6.60545E1,7.1611013E0,5.548293E0,1.3903922E0,1.0844244E1,1.987996E0,1.1318391E1,8.761467E0,1.7304289E0,5.439628E0,9.944488E0,1.6991165E1],"tree_param":{"num_deleted":"0","num_feature":"141","num_nodes":"81","size_leaf_vector":"1"}},{"base_weights":[-3.288414E-2,-1.7956235E-1,1.37819E-1,-3.2756606E-1,-1.2413761E-2,2.2300366E-1,-8.315026E-2,-4.427568E-1,-1.8156148E-1,-7.077352E-2,4.3151683E-1,1.4619495E-1,4.319697E-1,-4.7090942E-1,3.2982435E-2,6.544123E-2,-4.7649503E-1,-3.5684383E-1,3.7980814E-2,-1.5874738E-1,-1.7400157E-2,-9.920698E-2,5.8641165E-1,3.5797903E-1,2.8260434E-2,4.7586644E-1,-3.6604628E-2,-1.6428752E-1,2.2215955E-2,-1.8506408E-1,2.6262593E-1,-5.219315E-1,9.643548E-3,-1.2501516E-2,-5.082146E-1,2.9878235E-1,-3.9192852E-1,-1.1737489E-1,1.971227E-1,-1.5646838E-2,2.1892765E-1,-9.126693E-2,4.3793774E-1,5.023133E-1,-9.3642905E-2,5.198053E-1,-4.5976613E-2,3.413612E-1,-3.0112323E-1,3.859361E-1,-1.24419786E-1,-1.6318491E-1,-1.6587129E-3,-1.20589264E-1,1.5730144E-1,-9.329414E-2,1.1615548E-1,1.22574475E-2,-1.653566E-1,-5.982266E-2,1.7022277E-1,3.328022E-2,-1.4942549E-1,-8.377151E-2,7.4907444E-2,1.527703E-1,-1.8961301E-2,-1.4554715E-1,1.5069693E-1,1.9301467E-1,2.142007E-2,1.0020787E-2,2.1017547E-1,-9.79966E-2,3.7611596E-2,1.6568057E-1,-1.1497125E-2,1.5439711E-3,1.4575113E-1,-1.14314355E-1,9.660382E-2,2.0888297E-1,2.4595452E-2],"categories":[],"categories_nodes":[],"categories_segments":[],"categories_sizes":[],"default_left":[0,0,0,0,0,0,0,0,0,0,0,0,0,0,0,0,0,0,0,0,0,0,0,0,0,0,0,0,0,0,0,0,0,0,0,0,0,0,0,0,0,0,1,0,0,0,0,0,0,0,0,0,0,0,0,0,0,0,0,0,0,0,0,0,0,0,0,0,0,0,0,0,0,0,0,0,0,0,0,0,0,0,0],"id":15,"left_children":[1,3,5,7,9,11,13,15,17,19,21,23,25,27,29,-1,31,33,35,-1,37,-1,39,41,43,45,-1,-1,-1,47,49,51,53,55,57,59,61,63,65,-1,-1,67,69,71,73,75,-1,77,79,81,-1,-1,-1,-1,-1,-1,-1,-1,-1,-1,-1,-1,-1,-1,-1,-1,-1,-1,-1,-1,-1,-1,-1,-1,-1,-1,-1,-1,-1,-1,-1,-1,-1],"loss_changes":[7.574143E0,4.018488E0,2.6520975E0,1.3693676E0,2.0358372E0,1.5619998E0,1.8013544E0,1.1628408E0,1.5416994E0,1.6854613E0,1.2722964E0,1.8768789E0,7.074189E-1,4.254005E-1,1.6234909E0,0E0,1.0099974E0,1.1496062E0,2.195085E0,0E0,1.3759505E0,0E0,7.6595163E-1,1.0075881E0,2.914109E0,7.692456E-1,0E0,0E0,0E0,1.1243203E0,1.4740739E0,4.702959E-1,1.2426443E0,1.0506088E0,3.8542747E-1,1.7328491E0,4.5190978E-1,2.6633344E0,1.6917164E0,0E0,0E0,1.3888007E0,1.6890292E0,9.347205E-1,2.0979755E0,4.477749E-1,0E0,1.6697717E-1,8.3145785E-1,1.2472005E0,0E0,0E0,0E0,0E0,0E0,0E0,0E0,0E0,0E0,0E0,0E0,0E0,0E0,0E0,0E0,0E0,0E0,0E0,0E0,0E0,0E0,0E0,0E0,0E0,0E0,0E0,0E0,0E0,0E0,0E0,0E0,0E0,0E0],"parents":[2147483647,0,0,1,1,2,2,3,3,4,4,5,5,6,6,7,7,8,8,9,9,10,10,11,11,12,12,13,13,14,14,16,16,17,17,18,18,20,20,22,22,23,23,24,24,25,25,29,29,30,30,31,31,32,32,33,33,34,34,35,35,36,36,37,37,38,38,41,41,42,42,43,43,44,44,45,45,47,47,48,48,49,49],"right_children":[2,4,6,8,10,12,14,16,18,20,22,24,26,28,30,-1,32,34,36,-1,38,-1,40,42,44,46,-1,-1,-1,48,50,52,54,56,58,60,62,64,66,-1,-1,68,70,72,74,76,-1,78,80,82,-1,-1,-1,-1,-1,-1,-1,-1,-1,-1,-1,-1,-1,-1,-1,-1,-1,-1,-1,-1,-1,-1,-1,-1,-1,-1,-1,-1,-1,-1,-1,-1,-1],"split_conditions":[5E0,2.35E0,6E0,1.74E0,3.16E0,8E0,1.93E0,3.3333334E-1,3.83E0,2.65E0,1.53E0,1.3E1,9E0,2.18E0,7E0,6.544123E-2,2.07E0,4E0,4.23E0,-1.5874738E-1,2.03E0,-9.920698E-2,5E0,2.2E0,3E0,1.8E1,-3.6604628E-2,-1.6428752E-1,2.2215955E-2,1.97E0,2.6666667E0,3E1,1.83E0,1.97E0,1.82E0,1.5E1,5E0,2.3333333E0,2.01E0,-1.5646838E-2,2.1892765E-1,2.1E0,3.3E0,2.6E0,1.99E0,3E0,-4.5976613E-2,6E0,2.06E0,1.1E1,-1.24419786E-1,-1.6318491E-1,-1.6587129E-3,-1.20589264E-1,1.5730144E-1,-9.329414E-2,1.1615548E-1,1.22574475E-2,-1.653566E-1,-5.982266E-2,1.7022277E-1,3.328022E-2,-1.4942549E-1,-8.377151E-2,7.4907444E-2,1.527703E-1,-1.8961301E-2,-1.4554715E-1,1.5069693E-1,1.9301467E-1,2.142007E-2,1.0020787E-2,2.1017547E-1,-9.79966E-2,3.7611596E-2,1.6568057E-1,-1.1497125E-2,1.5439711E-3,1.4575113E-1,-1.14314355E-1,9.660382E-2,2.0888297E-1,2.4595452E-2],"split_indices":[3,56,2,42,32,3,91,124,22,18,12,1,125,38,6,0,48,2,31,0,45,0,131,20,121,4,0,0,0,91,123,0,51,86,40,0,122,132,78,0,0,90,70,53,49,138,0,3,93,4,0,0,0,0,0,0,0,0,0,0,0,0,0,0,0,0,0,0,0,0,0,0,0,0,0,0,0,0,0,0,0,0,0],"split_type":[0,0,0,0,0,0,0,0,0,0,0,0,0,0,0,0,0,0,0,0,0,0,0,0,0,0,0,0,0,0,0,0,0,0,0,0,0,0,0,0,0,0,0,0,0,0,0,0,0,0,0,0,0,0,0,0,0,0,0,0,0,0,0,0,0,0,0,0,0,0,0,0,0,0,0,0,0,0,0,0,0,0,0],"sum_hessian":[3.0051236E2,1.6160228E2,1.389101E2,8.520063E1,7.640164E1,1.0025293E2,3.865717E1,4.648984E1,3.8710785E1,6.8267654E1,8.13399E0,7.455039E1,2.5702541E1,8.205301E0,3.0451866E1,1.9925454E0,4.44973E1,2.1177383E1,1.7533401E1,6.190214E0,6.2077442E1,1.1821132E0,6.9518766E0,2.5937328E1,4.861306E1,2.394611E1,1.7564319E0,7.1884775E0,1.0168239E0,1.5719923E1,1.4731943E1,4.062655E1,3.870748E0,6.797297E0,1.4380087E1,1.1102909E1,6.4304924E0,4.265272E1,1.942472E1,1.3911012E0,5.5607753E0,3.8975606E0,2.2039768E1,9.305523E0,3.9307537E1,2.2545273E1,1.400837E0,2.4889925E0,1.323093E1,1.2827065E1,1.9048777E0,3.8914005E1,1.7125428E0,2.2724583E0,1.5982896E0,4.018379E0,2.7789176E0,1.0473609E0,1.3332726E1,3.9797676E0,7.1231413E0,1.1130365E0,5.317456E0,2.9766153E1,1.2886568E1,8.398931E0,1.1025789E1,2.452693E0,1.4448675E0,1.3639514E1,8.400253E0,3.112635E0,6.192888E0,1.880704E1,2.0500498E1,2.1315943E1,1.2293301E0,1.059355E0,1.4296376E0,1.207116E1,1.1597703E0,5.7081637E0,7.1189017E0],"tree_param":{"num_deleted":"0","num_feature":"141","num_nodes":"83","size_leaf_vector":"1"}},{"base_weights":[-6.48555E-2,-3.4835413E-2,-2.3952006E-1,-5.2342366E-2,3.8992098E-1,-3.216067E-1,3.6495164E-1,-1.5203251E-1,1.6522933E-2,-2.2296312E-1,6.0506004E-1,8.82071E-2,-4.2141894E-1,-5.621553E-2,2.1030913E-1,2.0836775E-1,-2.1513845E-1,1.0586917E-1,-1.4056548E-1,-1.07015274E-1,1.4138373E-2,2.3339603E-2,2.4682397E-1,-2.715816E-1,3.6749363E-1,-5.074095E-1,2.2735871E-1,-1.3485931E-1,3.756835E-1,-3.1028932E-1,3.952144E-2,5.6829137E-1,2.3647517E-2,2.4600176E-2,-4.4852322E-1,1.5637292E-2,-4.7234637E-3,-1.2457527E-1,3.0518295E-2,1.9017485E-1,1.17881335E-2,3.008277E-2,-5.356358E-1,1.4251558E-1,-9.084588E-2,3.5803735E-2,2.0594676E-1,-1.0358902E-1,1.849876E-1,1.8482186E-1,-2.3442226E-2,2.621843E-1,5.4478243E-2,8.144121E-2,-2.4064431E-2,9.429459E-2,-7.43823E-2,-1.5715839E-1,9.506387E-2,-9.29074E-2,9.919898E-2,2.9642599E-2,-1.6940969E-1],"categories":[],"categories_nodes":[],"categories_segments":[],"categories_sizes":[],"default_left":[0,0,0,0,0,0,0,0,0,1,0,0,0,0,0,1,0,0,0,0,0,0,0,0,0,0,0,0,0,1,0,0,0,0,0,0,0,0,0,0,0,0,0,0,0,0,0,0,0,0,0,0,0,0,0,0,0,0,0,0,0,0,0],"id":16,"left_children":[1,3,5,7,9,11,13,15,17,19,21,23,25,-1,-1,27,29,31,33,-1,-1,35,-1,37,39,41,43,-1,45,47,49,51,53,55,57,-1,-1,-1,-1,-1,59,-1,61,-1,-1,-1,-1,-1,-1,-1,-1,-1,-1,-1,-1,-1,-1,-1,-1,-1,-1,-1,-1],"loss_changes":[1.5791264E0,1.9502501E0,2.3121772E0,1.719693E0,1.5050715E0,1.6519189E0,1.2000376E0,2.371274E0,2.1038566E0,1.4074679E-1,9.8889136E-1,9.5979404E-1,1.8960075E0,0E0,0E0,1.9026141E0,2.1334739E0,3.61553E0,2.7776055E0,0E0,0E0,4.4174218E-3,0E0,2.7368155E-1,4.8941743E-1,5.424223E-1,7.2507334E-1,0E0,9.6188545E-1,2.284523E0,1.7236588E0,1.5392494E0,2.1344886E0,2.9482307E0,1.2639151E0,0E0,0E0,0E0,0E0,0E0,4.3703583E-1,0E0,5.607419E-1,0E0,0E0,0E0,0E0,0E0,0E0,0E0,0E0,0E0,0E0,0E0,0E0,0E0,0E0,0E0,0E0,0E0,0E0,0E0,0E0],"parents":[2147483647,0,0,1,1,2,2,3,3,4,4,5,5,6,6,7,7,8,8,9,9,10,10,11,11,12,12,15,15,16,16,17,17,18,18,21,21,23,23,24,24,25,25,26,26,28,28,29,29,30,30,31,31,32,32,33,33,34,34,40,40,42,42],"right_children":[2,4,6,8,10,12,14,16,18,20,22,24,26,-1,-1,28,30,32,34,-1,-1,36,-1,38,40,42,44,-1,46,48,50,52,54,56,58,-1,-1,-1,-1,-1,60,-1,62,-1,-1,-1,-1,-1,-1,-1,-1,-1,-1,-1,-1,-1,-1,-1,-1,-1,-1,-1,-1],"split_conditions":[8E0,2.3E1,7E0,1.1E1,1.54E0,1.86E0,1E1,5E-1,1.92E0,1.3E0,4.3E0,1.6666666E0,2.02E0,-5.621553E-2,2.1030913E-1,1.25E0,2E0,2.07E0,1.94E0,-1.07015274E-1,1.4138373E-2,9E0,2.4682397E-1,1.7E1,1E0,1.77E0,2.25E0,-1.3485931E-1,1.99E0,3.25E0,1.4E1,8E0,1.94E0,5E0,2.1E0,1.5637292E-2,-4.7234637E-3,-1.2457527E-1,3.0518295E-2,1.9017485E-1,1E1,3.008277E-2,4E0,1.4251558E-1,-9.084588E-2,3.5803735E-2,2.0594676E-1,-1.0358902E-1,1.849876E-1,1.8482186E-1,-2.3442226E-2,2.621843E-1,5.4478243E-2,8.144121E-2,-2.4064431E-2,9.429459E-2,-7.43823E-2,-1.5715839E-1,9.506387E-2,-9.29074E-2,9.919898E-2,2.9642599E-2,-1.6940969E-1],"split_indices":[2,0,3,5,40,47,5,133,79,27,60,123,36,0,0,29,138,80,39,0,0,5,0,120,132,87,81,0,87,100,140,120,91,6,89,0,0,0,0,0,2,0,95,0,0,0,0,0,0,0,0,0,0,0,0,0,0,0,0,0,0,0,0],"split_type":[0,0,0,0,0,0,0,0,0,0,0,0,0,0,0,0,0,0,0,0,0,0,0,0,0,0,0,0,0,0,0,0,0,0,0,0,0,0,0,0,0,0,0,0,0,0,0,0,0,0,0,0,0,0,0,0,0,0,0,0,0,0,0],"sum_hessian":[3.0175323E2,2.585201E2,4.3233135E1,2.4912866E2,9.39143E0,3.8476078E1,4.757058E0,1.0129102E2,1.4783765E2,2.430656E0,6.960774E0,7.5584598E0,3.0917618E1,1.9669176E0,2.7901406E0,1.4750208E1,8.654082E1,9.444614E1,5.3391502E1,1.4111137E0,1.0195422E0,2.1969943E0,4.7637796E0,3.3152294E0,4.2432303E0,2.7491701E1,3.4259174E0,2.6486773E0,1.2101531E1,6.284211E1,2.369871E1,1.3365518E1,8.108062E1,3.535163E1,1.8039873E1,1.0730727E0,1.1239216E0,2.3127928E0,1.0024368E0,1.9789011E0,2.2643294E0,1.1069793E0,2.6384722E1,2.4058902E0,1.020027E0,7.3903284E0,4.711202E0,6.1159725E1,1.6823815E0,3.2987418E0,2.039997E1,6.761226E0,6.6042914E0,2.3468727E1,5.7611893E1,1.7061615E1,1.8290016E1,1.6710632E1,1.3292412E0,1.141902E0,1.1224273E0,1.0505927E0,2.533413E1],"tree_param":{"num_deleted":"0","num_feature":"141","num_nodes":"63","size_leaf_vector":"1"}},{"base_weights":[8.718746E-2,-4.0707305E-2,2.542861E-1,3.4477675E-1,-8.800285E-2,3.4240833E-1,5.8771994E-2,-1.2911136E-3,5.138118E-1,-4.681465E-2,-5.702794E-1,4.8746143E-2,4.1415077E-1,1.6772869E-1,-2.568553E-1,-3.5959882E-1,3.5317558E-1,5.995065E-1,-4.366281E-2,3.15612E-2,-3.3641922E-1,2.9118316E-2,-6.425732E-1,1.4962064E-1,-1.523847E-1,4.33689E-1,-1.2916093E-1,2.8956002E-1,-2.1576706E-1,-3.752936E-1,1.3022895E-1,-1.7312421E-1,3.9655708E-2,1.6891012E-1,-3.7123285E-2,6.6096354E-1,-6.3660657E-3,-5.845382E-3,7.671593E-1,-1.729118E-1,3.285681E-2,-2.3223167E-2,-2.0583044E-1,-3.3637673E-1,3.0787033E-1,4.660873E-1,-4.837805E-2,1.3918561E-2,4.02334E-1,1.17211565E-1,-4.815573E-1,1.2107445E-1,-5.126299E-1,2.0988981E-1,5.9720688E-2,-2.6813017E-2,8.450705E-2,2.9035193E-1,7.995093E-3,-1.495822E-1,1.2449032E-1,4.6155743E-2,-1.5934354E-1,1.8768135E-2,1.7760748E-1,1.4617676E-1,-4.843134E-2,-1.2876709E-1,1.4125186E-1,-1.4775534E-1,9.347107E-2,1.8467158E-1,2.5840333E-2,-1.6808666E-1,-5.9623346E-3,3.643384E-2,-1.817139E-1],"categories":[],"categories_nodes":[],"categories_segments":[],"categories_sizes":[],"default_left":[0,0,0,0,0,1,0,0,0,0,0,0,0,0,0,1,0,0,0,0,0,0,0,0,0,0,0,0,0,0,0,0,0,0,0,0,0,0,0,0,1,0,0,0,1,0,0,0,0,0,0,0,1,0,0,0,0,0,0,0,0,0,0,0,0,0,0,0,0,0,0,0,0,0,0,0,0],"id":17,"left_children":[1,3,5,7,9,11,13,15,17,19,21,23,25,27,29,31,33,35,-1,37,39,-1,41,43,-1,45,-1,47,49,51,-1,-1,-1,-1,-1,53,-1,55,57,-1,59,-1,-1,61,63,65,67,69,71,-1,73,-1,75,-1,-1,-1,-1,-1,-1,-1,-1,-1,-1,-1,-1,-1,-1,-1,-1,-1,-1,-1,-1,-1,-1,-1,-1],"loss_changes":[7.253576E0,3.546262E0,2.5139399E0,1.2453909E0,3.4012218E0,2.111415E0,1.6560684E0,1.140542E0,8.951433E-1,3.6441054E0,7.131357E-1,1.2551818E0,1.5264692E0,1.7197855E0,1.1802332E0,5.537311E-1,5.216651E-1,5.041871E-1,0E0,3.496253E0,3.0476823E0,0E0,2.4951696E-1,1.5301776E0,0E0,1.2695312E0,0E0,8.4447956E-1,1.6590564E0,1.3994268E0,0E0,0E0,0E0,0E0,0E0,7.010174E-2,0E0,2.9494026E0,8.878834E-1,0E0,3.1330042E0,0E0,0E0,5.6239563E-1,9.7475576E-1,1.0737171E0,1.3754904E0,1.5064805E0,1.2530806E0,0E0,2.3576343E-1,0E0,6.5893507E-1,0E0,0E0,0E0,0E0,0E0,0E0,0E0,0E0,0E0,0E0,0E0,0E0,0E0,0E0,0E0,0E0,0E0,0E0,0E0,0E0,0E0,0E0,0E0,0E0],"parents":[2147483647,0,0,1,1,2,2,3,3,4,4,5,5,6,6,7,7,8,8,9,9,10,10,11,11,12,12,13,13,14,14,15,15,16,16,17,17,19,19,20,20,22,22,23,23,25,25,27,27,28,28,29,29,35,35,37,37,38,38,40,40,43,43,44,44,45,45,46,46,47,47,48,48,50,50,52,52],"right_children":[2,4,6,8,10,12,14,16,18,20,22,24,26,28,30,32,34,36,-1,38,40,-1,42,44,-1,46,-1,48,50,52,-1,-1,-1,-1,-1,54,-1,56,58,-1,60,-1,-1,62,64,66,68,70,72,-1,74,-1,76,-1,-1,-1,-1,-1,-1,-1,-1,-1,-1,-1,-1,-1,-1,-1,-1,-1,-1,-1,-1,-1,-1,-1,-1],"split_conditions":[6E0,7E0,5E0,1.92E0,1.9E1,3.5E0,2.1E1,1.7E0,1.6E1,4.13E0,1E0,1.9E0,6E0,3.3E0,3E0,2.07E0,1.85E0,2.09E0,-4.366281E-2,4.18E0,2.3333333E0,2.9118316E-2,1.84E0,2.6E0,-1.523847E-1,2.2E0,-1.2916093E-1,1.25E0,8.333333E-1,1E0,1.3022895E-1,-1.7312421E-1,3.9655708E-2,1.6891012E-1,-3.7123285E-2,3.13E0,-6.3660657E-3,4.6E0,1.6E0,-1.729118E-1,4.5E0,-2.3223167E-2,-2.0583044E-1,1.1E0,2.45E0,1E0,1.3E1,1E0,7E0,1.17211565E-1,8E0,1.2107445E-1,1.37E0,2.0988981E-1,5.9720688E-2,-2.6813017E-2,8.450705E-2,2.9035193E-1,7.995093E-3,-1.495822E-1,1.2449032E-1,4.6155743E-2,-1.5934354E-1,1.8768135E-2,1.7760748E-1,1.4617676E-1,-4.843134E-2,-1.2876709E-1,1.4125186E-1,-1.4775534E-1,9.347107E-2,1.8467158E-1,2.5840333E-2,-1.6808666E-1,-5.9623346E-3,3.643384E-2,-1.817139E-1],"split_indices":[2,1,3,50,0,57,0,36,5,74,136,129,9,65,123,105,46,38,0,71,124,0,51,26,0,130,0,129,129,9,0,0,0,0,0,27,0,26,139,0,59,0,0,139,18,10,121,135,6,0,7,0,38,0,0,0,0,0,0,0,0,0,0,0,0,0,0,0,0,0,0,0,0,0,0,0,0],"split_type":[0,0,0,0,0,0,0,0,0,0,0,0,0,0,0,0,0,0,0,0,0,0,0,0,0,0,0,0,0,0,0,0,0,0,0,0,0,0,0,0,0,0,0,0,0,0,0,0,0,0,0,0,0,0,0,0,0,0,0,0,0,0,0,0,0,0,0,0,0,0,0,0,0,0,0,0,0],"sum_hessian":[3.37927E2,1.9184679E2,1.4608023E2,2.027826E1,1.7156853E2,1.0017706E2,4.5903168E1,6.980122E0,1.3298138E1,1.590796E2,1.2488915E1,1.9998203E1,8.0178856E1,3.447184E1,1.1431328E1,3.4640536E0,3.5160685E0,1.184893E1,1.449208E0,1.2589862E2,3.3180992E1,1.1872131E0,1.13017025E1,1.7549437E1,2.4487658E0,7.884176E1,1.3370986E0,2.6346779E1,8.125063E0,1.0148573E1,1.2827547E0,2.2816136E0,1.1824402E0,2.3162787E0,1.1997899E0,1.0722493E1,1.126437E0,1.2075029E2,5.148331E0,1.9772272E1,1.3408722E1,1.0068854E0,1.0294817E1,4.034269E0,1.3515168E1,7.3907776E1,4.9339795E0,7.975799E0,1.837098E1,2.3326092E0,5.792454E0,1.2306355E0,8.917937E0,9.419226E0,1.3032672E0,9.410206E1,2.6648226E1,3.8090682E0,1.3392628E0,5.4808006E0,7.927922E0,1.2068129E0,2.8274562E0,7.9082026E0,5.6069655E0,7.171221E1,2.1955647E0,2.946241E0,1.9877385E0,2.710081E0,5.265718E0,1.0406371E1,7.9646077E0,4.766103E0,1.0263511E0,1.1025722E0,7.8153653E0],"tree_param":{"num_deleted":"0","num_feature":"141","num_nodes":"77","size_leaf_vector":"1"}},{"base_weights":[-2.9216105E-2,-1.5645072E-1,1.1454947E-1,-2.947039E-1,-1.2732004E-2,4.225609E-1,6.769782E-2,1.04916446E-1,-3.173548E-1,-5.95346E-2,4.256631E-1,5.3364104E-1,-1.315078E-1,2.8399846E-1,1.3069282E-3,-4.2892146E-1,-1.841754E-1,-2.0481983E-1,8.826688E-2,-9.2688E-2,1.8068385E-1,-2.558575E-2,6.0314226E-1,-1.6975692E-1,1.2126436E-1,5.550994E-1,9.1741584E-2,1.429452E-1,-1.2448325E-1,-4.6832037E-1,7.054397E-2,-3.0954924E-1,1.5149571E-1,9.832714E-2,-3.9633787E-1,-4.072614E-1,1.9063629E-1,1.9384201E-1,4.371521E-2,6.412662E-1,-2.192777E-2,-5.8975913E-2,1.6797392E-1,-3.4280038E-1,2.5341427E-1,3.4655026E-1,-2.0704894E-1,-1.4722079E-1,4.439715E-2,3.0114597E-2,-1.4042385E-1,1.3865331E-1,-7.47668E-2,-1.04774565E-1,1.2363168E-1,-9.445803E-3,-1.4760688E-1,3.5089444E-2,-1.6131976E-1,-1.1127592E-1,8.781746E-2,5.758852E-2,2.0563652E-1,-9.079174E-2,1.1483543E-1,1.0221495E-1,-1.609146E-1,9.969983E-2,-1.0675306E-1,1.6508254E-1,-1.0088279E-1,1.4332733E-1,-7.39962E-2],"categories":[],"categories_nodes":[],"categories_segments":[],"categories_sizes":[],"default_left":[0,0,0,0,0,0,0,0,0,0,0,0,0,0,0,1,0,0,0,0,0,0,0,0,0,0,0,0,0,0,0,0,0,0,0,0,0,0,0,0,0,0,0,1,0,0,0,0,0,0,0,0,0,0,0,0,0,0,0,0,0,0,0,0,0,0,0,0,0,0,0,0,0],"id":18,"left_children":[1,3,5,7,9,11,13,-1,15,17,19,21,23,25,27,29,31,33,35,-1,-1,-1,37,-1,-1,39,41,43,45,47,-1,49,51,53,55,57,59,-1,-1,61,-1,63,-1,65,67,69,71,-1,-1,-1,-1,-1,-1,-1,-1,-1,-1,-1,-1,-1,-1,-1,-1,-1,-1,-1,-1,-1,-1,-1,-1,-1,-1],"loss_changes":[5.169369E0,2.9731863E0,1.8878044E0,1.2249975E0,1.5540397E0,1.1375349E0,1.6720002E0,0E0,1.0242643E0,1.4824678E0,1.1344658E0,6.813655E-1,1.0893275E0,1.3743589E0,1.6232848E0,1.1475558E0,1.5450952E0,2.053105E0,1.8279154E0,0E0,0E0,0E0,1.6722631E-1,0E0,0E0,6.50321E-1,1.2464961E0,2.3862593E0,1.9486557E0,5.9434986E-1,0E0,1.7527311E0,1.4039966E0,2.1427634E0,7.3366046E-1,4.8876226E-1,1.7870072E0,0E0,0E0,6.509304E-2,0E0,1.613562E0,0E0,1.2895377E0,1.8245108E0,1.2383362E0,1.2485114E0,0E0,0E0,0E0,0E0,0E0,0E0,0E0,0E0,0E0,0E0,0E0,0E0,0E0,0E0,0E0,0E0,0E0,0E0,0E0,0E0,0E0,0E0,0E0,0E0,0E0,0E0],"parents":[2147483647,0,0,1,1,2,2,3,3,4,4,5,5,6,6,8,8,9,9,10,10,11,11,12,12,13,13,14,14,15,15,16,16,17,17,18,18,22,22,25,25,26,26,27,27,28,28,29,29,31,31,32,32,33,33,34,34,35,35,36,36,39,39,41,41,43,43,44,44,45,45,46,46],"right_children":[2,4,6,8,10,12,14,-1,16,18,20,22,24,26,28,30,32,34,36,-1,-1,-1,38,-1,-1,40,42,44,46,48,-1,50,52,54,56,58,60,-1,-1,62,-1,64,-1,66,68,70,72,-1,-1,-1,-1,-1,-1,-1,-1,-1,-1,-1,-1,-1,-1,-1,-1,-1,-1,-1,-1,-1,-1,-1,-1,-1,-1],"split_conditions":[5E0,2.35E0,7E0,1.77E0,3.22E0,1E1,3E0,1.04916446E-1,1.74E0,4.2E0,1.53E0,2.05E0,1.65E0,1.25E0,5E0,6.86E0,2.13E0,1.91E0,2.46E0,-9.2688E-2,1.8068385E-1,-2.558575E-2,8E0,-1.6975692E-1,1.2126436E-1,1.6666666E0,2.02E0,4E0,4E0,3.2857144E0,7.054397E-2,6E0,1.3E1,1.94E0,9E0,1.96E0,1.52E0,1.9384201E-1,4.371521E-2,8E0,-2.192777E-2,4E0,1.6797392E-1,3.5E0,9E0,1.6E1,2E0,-1.4722079E-1,4.439715E-2,3.0114597E-2,-1.4042385E-1,1.3865331E-1,-7.47668E-2,-1.04774565E-1,1.2363168E-1,-9.445803E-3,-1.4760688E-1,3.5089444E-2,-1.6131976E-1,-1.1127592E-1,8.781746E-2,5.758852E-2,2.0563652E-1,-9.079174E-2,1.1483543E-1,1.0221495E-1,-1.609146E-1,9.969983E-2,-1.0675306E-1,1.6508254E-1,-1.0088279E-1,1.4332733E-1,-7.39962E-2],"split_indices":[3,56,5,87,32,128,2,0,42,18,12,56,36,127,7,98,41,48,104,0,0,0,2,0,0,126,45,120,121,129,0,121,122,77,4,84,81,0,0,4,0,125,0,57,2,0,120,0,0,0,0,0,0,0,0,0,0,0,0,0,0,0,0,0,0,0,0,0,0,0,0,0,0],"split_type":[0,0,0,0,0,0,0,0,0,0,0,0,0,0,0,0,0,0,0,0,0,0,0,0,0,0,0,0,0,0,0,0,0,0,0,0,0,0,0,0,0,0,0,0,0,0,0,0,0,0,0,0,0,0,0,0,0,0,0,0,0,0,0,0,0,0,0,0,0,0,0,0,0],"sum_hessian":[2.8062363E2,1.4882399E2,1.3179962E2,7.5318886E1,7.350511E1,1.6342419E1,1.1545721E2,2.0671835E0,7.32517E1,6.719558E1,6.3095293E0,1.3643939E1,2.6984792E0,2.6345676E1,8.9111534E1,3.86518E1,3.4599903E1,3.3691696E1,3.3503887E1,1.077678E0,5.2318516E0,1.3545145E0,1.2289425E1,1.4591732E0,1.239306E0,1.0148301E1,1.6197374E1,4.1851196E1,4.7260338E1,3.6765297E1,1.8865013E0,2.5247667E1,9.352235E0,1.323271E1,2.0458984E1,5.2264476E0,2.827744E1,1.0856371E1,1.4330537E0,8.905899E0,1.2424016E0,1.291402E1,3.2833555E0,7.3646812E0,3.4486515E1,6.5717177E0,4.0688618E1,3.5671654E1,1.0936451E0,7.1432576E0,1.8104408E1,5.1815457E0,4.1706896E0,5.4070363E0,7.825674E0,4.5268693E0,1.5932116E1,1.0621806E0,4.164267E0,3.9448404E0,2.4332598E1,1.2759886E0,7.629911E0,8.526151E0,4.387869E0,1.4576834E0,5.9069977E0,3.0934082E1,3.552431E0,5.211084E0,1.3606339E0,1.61969E0,3.9068928E1],"tree_param":{"num_deleted":"0","num_feature":"141","num_nodes":"73","size_leaf_vector":"1"}},{"base_weights":[-4.6690587E-2,-4.016891E-1,-3.3248145E-2,-6.809492E-2,-1.631332E-1,-7.13684E-2,9.4942E-2,-1.1846605E-1,1.1943299E-1,-9.1979E-2,3.991298E-1,2.9211658E-1,-8.756382E-2,3.0707696E-2,-1.8953218E-1,6.303247E-1,-1.21814944E-1,-4.502113E-2,4.7081625E-1,-4.103748E-1,9.149443E-2,-1.3497995E-1,1.2801605E-1,1.06338054E-1,-2.3914489E-1,2.4172197E-1,-2.3595769E-2,-1.9801383E-1,1.2418644E-1,5.426888E-1,-1.040071E-1,-1.6202998E-1,4.7656525E-2,-2.1175523E-1,5.198773E-1,-8.8032365E-2,7.605117E-2,-1.06242284E-1,5.3864695E-2,1.5847734E-1,-6.1574128E-2,-8.184773E-2,9.440613E-2,7.633001E-2,-1.2142948E-1,1.9832204E-1,-1.6627876E-2,1.506735E-1,-1.1072613E-1,-1.2574726E-1,1.0676491E-1,2.2694524E-1,-5.4007623E-2],"categories":[],"categories_nodes":[],"categories_segments":[],"categories_sizes":[],"default_left":[0,0,0,0,0,1,0,0,0,0,0,0,1,0,0,0,0,0,1,0,1,1,0,0,0,0,0,1,0,1,0,0,0,0,0,0,0,0,0,0,0,0,0,0,0,0,0,0,0,0,0,0,0],"id":19,"left_children":[1,3,5,7,-1,9,11,-1,-1,13,15,17,19,21,23,25,-1,27,29,31,33,35,37,39,41,-1,-1,43,-1,45,-1,-1,47,49,51,-1,-1,-1,-1,-1,-1,-1,-1,-1,-1,-1,-1,-1,-1,-1,-1,-1,-1],"loss_changes":[1.3546124E0,4.544388E-1,1.3618127E0,8.0322325E-1,0E0,2.114891E0,2.3282235E0,0E0,0E0,2.4728205E0,1.9650502E0,1.8881493E0,2.0027857E0,1.5031825E0,1.7129669E0,9.9920225E-1,0E0,8.998906E-1,1.3832831E0,7.5733995E-1,3.0572557E0,2.2035213E0,1.5189993E0,2.3697834E0,1.9281125E0,0E0,0E0,9.8346055E-1,0E0,1.3881226E0,0E0,0E0,8.7429416E-1,1.7966826E0,1.7413175E0,0E0,0E0,0E0,0E0,0E0,0E0,0E0,0E0,0E0,0E0,0E0,0E0,0E0,0E0,0E0,0E0,0E0,0E0],"parents":[2147483647,0,0,1,1,2,2,3,3,5,5,6,6,9,9,10,10,11,11,12,12,13,13,14,14,15,15,17,17,18,18,19,19,20,20,21,21,22,22,23,23,24,24,27,27,29,29,32,32,33,33,34,34],"right_children":[2,4,6,8,-1,10,12,-1,-1,14,16,18,20,22,24,26,-1,28,30,32,34,36,38,40,42,-1,-1,44,-1,46,-1,-1,48,50,52,-1,-1,-1,-1,-1,-1,-1,-1,-1,-1,-1,-1,-1,-1,-1,-1,-1,-1],"split_conditions":[1.52E0,1.97E0,2E0,1.4285715E0,-1.631332E-1,2.8E0,4.11E0,-1.1846605E-1,1.1943299E-1,1.2E0,1.7E1,4E0,2.42E0,1E1,1.87E0,4E0,-1.21814944E-1,2.06E0,2.75E0,7E0,3.95E0,2.46E0,1.47E0,5E0,2.14E0,2.4172197E-1,-2.3595769E-2,3.6E0,1.2418644E-1,3.7E0,-1.040071E-1,-1.6202998E-1,6E0,4E0,1.25E0,-8.8032365E-2,7.605117E-2,-1.06242284E-1,5.3864695E-2,1.5847734E-1,-6.1574128E-2,-8.184773E-2,9.440613E-2,7.633001E-2,-1.2142948E-1,1.9832204E-1,-1.6627876E-2,1.506735E-1,-1.1072613E-1,-1.2574726E-1,1.0676491E-1,2.2694524E-1,-5.4007623E-2],"split_indices":[116,91,138,139,0,94,31,0,0,135,1,7,80,1,37,9,0,88,107,6,60,39,18,6,50,0,0,16,0,60,0,0,18,8,139,0,0,0,0,0,0,0,0,0,0,0,0,0,0,0,0,0,0],"split_type":[0,0,0,0,0,0,0,0,0,0,0,0,0,0,0,0,0,0,0,0,0,0,0,0,0,0,0,0,0,0,0,0,0,0,0,0,0,0,0,0,0,0,0,0,0,0,0,0,0,0,0,0,0],"sum_hessian":[2.856627E2,9.368548E0,2.7629416E2,3.2402787E0,6.12827E0,2.1330603E2,6.298812E1,1.9949031E0,1.2453756E0,2.0512485E2,8.181174E0,2.9988613E1,3.2999508E1,9.116164E1,1.1396322E2,6.524832E0,1.6563424E0,1.0647995E1,1.9340616E1,1.1312743E1,2.1686764E1,3.358651E1,5.7575127E1,1.6201374E1,9.776184E1,5.12125E0,1.4035815E0,8.412417E0,2.2355776E0,1.8086662E1,1.2539544E0,8.67625E0,2.6364927E0,1.2994045E1,8.692719E0,2.4029577E1,9.556933E0,4.992425E0,5.2582703E1,6.5867796E0,9.614594E0,9.263566E1,5.126181E0,2.5661387E0,5.8462787E0,1.5010399E1,3.076264E0,1.1628635E0,1.4736292E0,9.708393E0,3.2856522E0,6.436108E0,2.2566109E0],"tree_param":{"num_deleted":"0","num_feature":"141","num_nodes":"53","size_leaf_vector":"1"}},{"base_weights":[6.802794E-2,9.280322E-3,3.419696E-1,3.2792416E-1,-3.804521E-2,3.7793338E-1,-1.9876066E-1,5.8047116E-1,1.8332376E-1,4.3521356E-3,-3.2907018E-1,-1.02679096E-1,3.996577E-1,-1.296151E-1,6.5972075E-2,1.914641E-1,1.871189E-2,5.648592E-1,-4.4631947E-2,9.308116E-2,-1.7043903E-1,4.286177E-2,-4.6065962E-1,4.346953E-1,1.8410896E-3,1.8334597E-1,3.547904E-2,-2.4204205E-1,3.6182562E-1,-1.1084858E-1,2.0212236E-1,-4.6994436E-1,-7.349368E-2,3.847283E-1,-2.8513813E-1,-6.285279E-1,-1.4946178E-1,4.8699835E-1,8.849899E-2,3.28129E-1,-1.6947532E-1,-1.5916966E-1,3.258043E-2,1.7786261E-1,-9.846482E-2,-1.1842813E-1,1.5978575E-2,1.6868496E-2,1.1858127E-1,4.8504837E-2,-1.6564415E-1,1.961983E-1,-3.768843E-2,1.4163557E-1,1.5403928E-2,4.7291223E-2,-1.5139431E-1,-2.1756907E-1,-1.8711299E-2,-1.13581516E-1,6.1293766E-2,1.5145433E-1,-2.7686244E-2,8.2355864E-2,-1.20233886E-1,1.4232199E-2,1.2732606E-1],"categories":[],"categories_nodes":[],"categories_segments":[],"categories_sizes":[],"default_left":[0,0,0,0,0,0,0,0,0,0,0,0,0,0,0,0,0,0,0,0,0,0,0,1,0,0,0,0,0,0,0,0,0,0,0,0,0,1,0,0,0,0,0,0,0,0,0,0,0,0,0,0,0,0,0,0,0,0,0,0,0,0,0,0,0,0,0],"id":20,"left_children":[1,3,5,7,9,11,13,15,17,19,21,-1,23,-1,-1,-1,-1,25,27,29,31,33,35,37,39,-1,-1,41,43,45,47,49,51,53,55,57,59,61,63,65,-1,-1,-1,-1,-1,-1,-1,-1,-1,-1,-1,-1,-1,-1,-1,-1,-1,-1,-1,-1,-1,-1,-1,-1,-1,-1,-1],"loss_changes":[5.1096864E0,3.9728754E0,1.1655464E0,1.1376073E0,2.8339076E0,9.647703E-1,5.0055426E-1,3.174405E-1,2.0363784E0,3.1387203E0,1.4490337E0,0E0,7.2166634E-1,0E0,0E0,0E0,0E0,1.08044386E-1,1.323429E0,3.0066986E0,1.9442848E0,1.0680811E0,1.0374079E0,8.193865E-1,1.1469549E0,0E0,0E0,1.1670614E0,1.0612638E0,2.229713E0,2.4519548E0,9.4493484E-1,2.0798428E0,1.1008632E-1,5.5932146E-1,7.0789003E-1,7.988838E-1,4.7216702E-1,7.902593E-1,8.615407E-2,0E0,0E0,0E0,0E0,0E0,0E0,0E0,0E0,0E0,0E0,0E0,0E0,0E0,0E0,0E0,0E0,0E0,0E0,0E0,0E0,0E0,0E0,0E0,0E0,0E0,0E0,0E0],"parents":[2147483647,0,0,1,1,2,2,3,3,4,4,5,5,6,6,7,7,8,8,9,9,10,10,12,12,17,17,18,18,19,19,20,20,21,21,22,22,23,23,24,24,27,27,28,28,29,29,30,30,31,31,32,32,33,33,34,34,35,35,36,36,37,37,38,38,39,39],"right_children":[2,4,6,8,10,12,14,16,18,20,22,-1,24,-1,-1,-1,-1,26,28,30,32,34,36,38,40,-1,-1,42,44,46,48,50,52,54,56,58,60,62,64,66,-1,-1,-1,-1,-1,-1,-1,-1,-1,-1,-1,-1,-1,-1,-1,-1,-1,-1,-1,-1,-1,-1,-1,-1,-1,-1,-1],"split_conditions":[8E0,7E0,4.2E0,7E0,1.9E1,3.5E0,1.1E1,1.875E0,9E0,2E0,1.47E0,-1.02679096E-1,3E1,-1.296151E-1,6.5972075E-2,1.914641E-1,1.871189E-2,2.08E0,1.5714285E0,4E0,1.89E0,1.625E0,1.6E1,1.99E0,8E0,1.8334597E-1,3.547904E-2,1.3333334E0,2.2E0,2E0,4.01E0,3.4E0,2.9E0,9.5E0,2E0,1.8E1,1.3E1,2.11E0,3E0,2E0,-1.6947532E-1,-1.5916966E-1,